tree
version=v4
num_class=1
num_tree_per_iteration=1
label_index=0
max_feature_idx=42
objective=binary sigmoid:1
feature_names=side_is_up elapsed_seconds remaining_seconds fair edge edge_after_fill bid ask spread limit_price bn_price bn_open_price bn_return_from_open sigma_short sigma_long sigma_eff tau_seconds z yes_bid yes_ask down_bid down_ask yes_mid down_mid side_cost opposite_cost total_cost is_extension_order utc_hour utc_day_of_week rolling_6_market_roi rolling_10_market_roi rolling_10_market_win_rate amount_usd order_type_is_fak order_type_is_fok exec_mode_is_market exec_mode_is_hybrid exec_mode_is_edge last_30s limit_minus_ask limit_minus_bid ask_x_amount
feature_infos=[0:1] [17.486999999999998:299.92000000000002] [-0.25025200000000003:281.67261999999999] [0.26017142999999998:1] [0.24000004:0.97961469000000001] [0.24000004:0.95961468999999999] [0.01:0.73999999999999999] [0.02:0.75] [0.01:0.02] [0.02:0.75] [72671.929999999993:78122.960000000006] [72696.669999999998:78112.009999999995] [-0.0035091828916515855:0.0029441584431171286] [0:0.0010402812290000001] [6.1733000000000001e-08:0.00041329238800000002] [1.500009e-05:0.00091323416699999995] [5:282.51395400000001] [-6:6] [0:0.98999999999999999] [0.01:1] [0:0.98999999999999999] [0.01:1] [0.0050000000000000001:0.995] [0.0050000000000000001:0.995] [0:26.999992999999996] [0:29.999990999999994] [0:29.999990999999994] [0:1] [0:23] [0:4] [-1.0643808665787813:8.2632990383333311] [-1.0599956764730107:4.89566656261111] [0:0.90000000000000002] [1:3] [0:1] [0:1] [0:1] [0:1] none [0:1] [0:0.020000000000000018] [0.0099999999999998979:0.040000000000000008] [0.02:2.2199999999999998]
tree_sizes=1696 1746 1737 1740 1750 1745 1756 1753 1744 1734 1744 1741 1746 1742 1736 1739 1748 1749 1732 1742 1741 1743 1741 1730 1740 1721 1719 1735 1716 1719 1723 1726 1750 1745 1744 1740 1738 1732 1736 1735 1736 1740 1735 1735 1749 1747 1733 1725 1735 1729 1733 1733 1725 1732 1723 1748 1747 1732 1742 1739 1732 1760 1735 1731 1751 1752 1734 1736 1749 1728 1749 1730 1722 1745 1748 1749 1723 1745 1741 1739 1746 1735 1744 1734 1736 1755 1732 1751 1725 1724 1753 1731 1747 1750 1747 1764 1727 1745 1741 1739 1727 1756 1751 1734 1744 1744 1739 1750 1723 1738 1733 1748 1748 1744 1738 1740 1743 1750 1744 1730

Tree=0
num_leaves=15
num_cat=0
split_feature=26 34 14 13 25 30 12 30 6 1 17 4 14 28
split_gain=274.186 33.9362 43.1752 30.8281 28.864 18.5043 15.2505 12.3857 11.5711 11.5154 10.1595 9.36211 8.83469 9.3838
threshold=1.0000000180025095e-35 1.0000000180025095e-35 5.3499942000000008e-05 1.7369593500000006e-05 1.0000000180025095e-35 -0.70469929654814545 -0.00045443632919039961 -0.38578182580423276 0.065000000000000016 262.33850000000007 0.97549282500000012 0.29864085000000007 1.6985843000000004e-05 18.500000000000004
decision_type=2 2 2 2 2 2 2 2 2 2 2 2 2 2
left_child=1 3 8 7 6 -4 -2 -1 -3 -5 -9 -7 -8 -14
right_child=4 2 5 9 -6 11 12 10 -10 -11 -12 -13 13 -15
leaf_value=0.28914285411919854 0.26789303274776122 0.25008083493314337 0.21322425175995191 0.20769633074187177 0.26365670654575385 0.28244467776147947 0.33578180554393144 0.23690631540222595 0.29848500101284992 0.26244632763089459 0.28541081406957541 0.22871189593933366 0.31330165989853681 0.34107302129813732
leaf_weight=17.380538776516914 7.3438896238803855 9.0574638694524747 19.828501984477043 37.698633402585983 13.219001322984694 16.401353493332866 92.288212940096855 29.130762174725533 61.933469161391258 7.3438896238803855 9.0574638694524747 7.5886859446763983 91.553823977708817 24.724428400397301
leaf_count=71 30 37 81 154 54 67 377 119 253 30 37 31 374 101
internal_value=0.290574 0.258176 0.273038 0.241216 0.321033 0.241816 0.324546 0.261151 0.292309 0.216623 0.248411 0.265448 0.326541 0.319207
internal_weight=444.55 215.421 114.809 100.611 229.129 43.8185 215.91 55.5688 70.9909 45.0425 38.1882 23.99 208.566 116.278
internal_count=1816 880 469 411 936 179 882 227 290 184 156 98 852 475
is_linear=0
shrinkage=1


Tree=1
num_leaves=15
num_cat=0
split_feature=24 34 14 13 3 14 6 21 28 1 6 17 14 5
split_gain=286.708 33.3808 40.0058 30.2224 14.6944 12.4055 17.8606 11.3714 11.0928 10.2116 9.45699 8.77132 10.5865 8.23875
threshold=1.0000000180025095e-35 1.0000000180025095e-35 5.2261270000000005e-05 1.7369593500000006e-05 0.33553041000000006 2.7431866500000006e-05 0.57500000000000007 0.43500000000000005 10.500000000000002 262.33850000000007 0.065000000000000016 -0.88861042499999987 2.0784260000000004e-05 0.25334948000000007
decision_type=2 2 2 2 2 2 2 2 2 2 2 2 2 2
left_child=1 3 10 7 -4 11 -7 -1 -6 -5 -3 12 -2 -9
right_child=5 2 4 9 8 6 -8 13 -10 -11 -12 -13 -14 -15
leaf_value=-0.003938481792909833 0.033702537150882304 -0.035799858389591363 0.0056719231438234355 -0.079539667604974718 -0.015096264282981069 0.029274276749885128 -0.018598115354209306 -0.028433350010840526 -0.067088734989283791 -0.031554107370908135 0.007368352712526025 0.044863702953874193 -0.017402340195959969 -0.068617629665851443
leaf_weight=19.879697263240814 29.680370569229126 9.3521484434604627 7.3708695173263541 40.54481765627861 8.3617359250783903 58.054683521389961 15.880247980356215 25.335075423121452 30.567021563649178 8.6008477956056577 61.619739830493927 108.76437696814537 8.2990021705627424 12.044176757335661
leaf_count=81 122 38 30 164 34 238 65 103 124 35 252 447 34 49
internal_value=5.20098e-06 -0.0319091 -0.01719 -0.0481315 -0.0461154 0.032353 0.0189919 -0.0283816 -0.055921 -0.0711418 0.00167997 0.0390848 0.0225354 -0.0413814
internal_weight=444.355 223.676 117.272 106.405 46.2996 220.679 73.9349 57.2589 38.9288 49.1457 70.9719 146.744 37.9794 37.3793
internal_count=1816 910 478 432 188 906 303 233 158 199 290 603 156 152
is_linear=0
shrinkage=0.04


Tree=2
num_leaves=15
num_cat=0
split_feature=24 34 14 9 12 30 14 4 6 31 28 4 3 42
split_gain=264.576 30.4631 36.6273 19.1335 15.612 14.2995 11.8724 10.4422 8.68784 8.22414 7.25653 8.2827 6.99138 6.82545
threshold=1.0000000180025095e-35 1.0000000180025095e-35 5.2261270000000005e-05 0.58500000000000008 -0.00037659031275150129 -0.70469929654814545 1.1031644500000001e-05 0.29864085000000007 0.065000000000000016 0.16236612982621776 13.500000000000002 0.28198726500000004 0.43731058500000003 0.24500000000000002
decision_type=2 2 2 2 2 2 2 2 2 2 2 2 2 2
left_child=1 3 8 6 -2 -4 -1 13 -3 -6 11 -10 -8 -7
right_child=4 2 5 -5 9 7 12 -9 10 -11 -12 -13 -14 -15
leaf_value=-0.017025328149587415 -0.013113582153045707 -0.034222498955748921 -0.06812270407752602 -0.019545479384571053 0.029542099425721086 0.02104842603064238 -0.034666558251015576 -0.059947424702955096 0.054141429283575876 0.048687114874891753 -0.011505706730572954 0.0082122378006068489 -0.069116844673539929 -0.030073148903666504
leaf_weight=10.359079822897909 12.00426125526428 9.3910395503044111 21.363099202513695 31.06836824119091 161.26367388665676 8.096715867519384 11.41561049222946 8.4213546514511091 7.81700775027275 46.181198105216026 21.737655818462372 31.997096806764603 54.060987040400505 8.6354837268590909
leaf_count=42 49 38 86 126 666 33 46 34 32 191 89 131 218 35
internal_value=9.63559e-06 -0.0305344 -0.0164731 -0.045984 0.0312377 -0.0440578 -0.0568154 -0.0236194 0.00161397 0.0338041 0.0070816 0.0172299 -0.0631106 -0.00533541
internal_weight=443.813 224.363 117.459 106.904 219.449 46.5167 75.8357 25.1536 70.9428 207.445 61.5518 39.8141 65.4766 16.7322
internal_count=1816 910 478 432 906 188 306 102 290 857 252 163 264 68
is_linear=0
shrinkage=0.04


Tree=3
num_leaves=15
num_cat=0
split_feature=24 34 14 13 12 30 30 4 1 4 4 7 28 31
split_gain=244.315 27.8544 33.616 26.5013 14.5273 13.0726 11.6459 9.5522 9.13175 8.92386 8.08729 9.69067 8.62438 7.75584
threshold=1.0000000180025095e-35 1.0000000180025095e-35 5.2261270000000005e-05 1.7369593500000006e-05 -0.00037659031275150129 -0.70469929654814545 -0.38578182580423276 0.29864085000000007 262.33850000000007 0.25551566000000003 0.26556382000000006 0.15500000000000003 11.500000000000002 0.16236612982621776
decision_type=2 2 2 2 2 2 2 2 2 2 2 2 2 2
left_child=1 3 10 6 -2 -4 -1 -7 -5 -8 -3 -12 -13 -6
right_child=4 2 5 8 13 7 9 -9 -10 -11 11 12 -14 -15
leaf_value=0.0011129510990748675 -0.012565986713931103 0.027474773866595213 -0.065117296002297015 -0.073319748377510166 0.028518133740939935 -0.005119241980288629 -0.021125025217353623 -0.057266525397907969 -0.02814206606490291 -0.059441887651440525 -0.032988828088630302 0.019329117135284415 -0.018392565709007238 0.04718931770289049
leaf_weight=18.024026185274124 12.025829717516897 15.143015280365942 21.453070983290672 40.938586324453354 160.38969038426876 16.735907390713695 22.526559010148048 8.4620676189661008 8.6755849570035917 17.113037616014481 14.990109547972677 24.87518435716629 15.893909707665442 45.749851167201996
leaf_count=73 49 62 86 164 666 68 91 34 35 69 61 102 65 191
internal_value=1.30864e-05 -0.0292487 -0.0157988 -0.0439867 0.0301689 -0.0421691 -0.0255455 -0.0226315 -0.0654199 -0.037667 0.00155186 -0.00548825 0.00462325 0.0326619
internal_weight=442.996 224.831 117.553 107.278 218.165 46.651 57.6636 25.198 49.6142 39.6396 70.9022 55.7592 40.7691 206.14
internal_count=1816 910 478 432 906 188 233 102 199 160 290 228 167 857
is_linear=0
shrinkage=0.04


Tree=4
num_leaves=15
num_cat=0
split_feature=24 34 14 13 12 42 4 30 3 21 14 28 9 30
split_gain=225.78 25.5642 30.9083 24.4021 13.6568 12.3351 12.4712 10.6799 8.76104 8.55742 7.78343 8.76637 7.71161 7.34197
threshold=1.0000000180025095e-35 1.0000000180025095e-35 5.2261270000000005e-05 1.7369593500000006e-05 -0.0003599453455916945 0.24500000000000002 0.28518235000000008 -0.38578182580423276 0.43731058500000003 0.42500000000000004 1.6985843000000004e-05 2.5000000000000004 0.095000000000000015 -1.0579152865288606
decision_type=2 2 2 2 2 2 2 2 2 2 2 2 2 2
left_child=1 3 12 7 -2 6 -4 -1 -5 -9 -6 -12 -3 -14
right_child=4 2 5 8 10 -7 -8 9 -10 -11 11 -13 13 -15
leaf_value=0.0010685663431053954 -0.0087956039877696655 -0.031214338335159554 0.018650510439402669 -0.030689662725665326 0.040831138798080507 -0.05618671893637335 -0.049323115737909026 -0.010688996169691727 -0.071515064806946693 -0.049631729430295611 -0.0056519515476794813 0.028956849527441469 -0.024044965124980094 0.013062204726985343
leaf_weight=18.021825030446053 14.185448378324507 9.9196621477603895 9.0927827507257479 10.725305944681166 87.102378278970718 29.408004328608513 8.2252863794565183 13.861741900444029 38.965887978672981 25.89278119802475 13.223897770047186 102.3072803914547 10.258028283715246 50.683506682515144
leaf_count=73 58 40 37 43 366 118 33 56 156 104 55 427 42 208
internal_value=1.57398e-05 -0.0280488 -0.0151607 -0.0421506 0.0291463 -0.0404154 -0.0136338 -0.0244739 -0.0627033 -0.036053 0.0318025 0.0249955 0.00149234 0.00681611
internal_weight=441.874 225.055 117.587 107.468 216.819 46.7261 17.3181 57.7763 49.6912 39.7545 202.634 115.531 70.8612 60.9415
internal_count=1816 910 478 432 906 188 70 233 199 160 848 482 290 250
is_linear=0
shrinkage=0.04


Tree=5
num_leaves=15
num_cat=0
split_feature=24 34 14 13 30 15 9 30 30 16 4 4 4 7
split_gain=208.779 23.5242 28.4532 22.562 11.7134 11.2927 15.3712 14.3416 9.81061 8.38847 8.35559 8.16162 7.56397 8.60322
threshold=1.0000000180025095e-35 1.0000000180025095e-35 5.2261270000000005e-05 1.7369593500000006e-05 -0.70469929654814545 2.0312837000000004e-05 0.57500000000000007 -0.16592068499999998 -0.38578182580423276 38.339671500000009 0.29864085000000007 0.25551566000000003 0.26556382000000006 0.15500000000000003
decision_type=2 2 2 2 2 2 2 2 2 2 2 2 2 2
left_child=1 3 12 8 -4 -2 -7 -8 -1 -5 -6 -10 -3 -14
right_child=5 2 4 9 10 6 7 -9 11 -11 -12 -13 13 -15
leaf_value=0.0010259478948232413 0.037850617909318388 0.026572037482602111 -0.060483627100524524 -0.024608077938859576 -0.0039386733252483389 0.027375580059023435 -0.032238454269446722 0.029383290143542379 -0.018753245106608109 -0.067804415937675527 -0.052624687827323095 -0.05530681948176789 -0.031202236881648329 0.0041935812985188867
leaf_weight=18.019701331853867 101.70744520425797 15.075169026851652 21.486632093787193 8.7257643491029722 16.772434785962108 88.39747728407383 15.347800493240358 9.9674898236989957 22.624075502157211 40.948002457618713 8.4976690858602506 17.205775618553162 15.051136970520018 40.688587799668312
leaf_count=73 430 62 86 35 68 371 63 42 91 164 34 69 61 167
internal_value=1.79066e-05 -0.0269212 -0.014555 -0.040443 -0.0387717 0.0281669 0.0195055 -0.00797588 -0.023464 -0.0602165 -0.0203105 -0.0345437 0.00143444 -0.00536419
internal_weight=440.515 225.095 117.572 107.523 46.7567 215.42 113.713 25.3153 57.8496 49.6738 25.2701 39.8299 70.8149 55.7397
internal_count=1816 910 478 432 188 906 476 105 233 199 102 160 290 228
is_linear=0
shrinkage=0.04


Tree=6
num_leaves=15
num_cat=0
split_feature=24 34 14 13 3 12 22 5 9 30 17 30 3 15
split_gain=193.181 21.7004 26.3031 20.9711 15.7735 12.8501 17.2058 14.0388 9.38623 11.3827 10.1082 9.02204 8.06437 8.01838
threshold=1.0000000180025095e-35 1.0000000180025095e-35 5.9601909500000005e-05 1.7369593500000006e-05 0.3744527250000001 -0.00020651711092195543 0.44250000000000006 0.24461018500000001 0.095000000000000015 -1.0587464009346086 -0.014533489999999998 -0.38578182580423276 0.43731058500000003 2.0461867500000003e-05
decision_type=2 2 2 2 2 2 2 2 2 2 2 2 2 2
left_child=1 3 8 11 -4 6 7 -2 -3 -10 -11 -1 -5 -9
right_child=5 2 4 12 -6 -7 -8 13 9 10 -12 -13 -14 -15
leaf_value=0.00098502293235512963 0.023934328809756922 -0.034428129691679799 -0.0014764209141792087 -0.027260533655834411 -0.055873446474730672 0.032232806722036648 0.035542799665286007 -0.0078210325592600743 -0.030008788019218819 0.031006971245501096 -0.0036843117918300338 -0.033119940480729082 -0.066440250827491693 -0.066469632988454458
leaf_weight=18.017653152346611 9.3233861476182955 10.936511889100073 12.097527101635931 10.728615447878836 28.913623929023743 169.7327299118042 19.957229733467102 7.1061962097883207 11.781098827719687 26.483364328742024 27.282663270831112 39.879200398921967 38.820156931877136 7.8502174615859985
leaf_count=73 39 44 49 43 116 721 84 30 48 109 112 160 156 32
internal_value=1.94951e-05 -0.0258625 -0.0139817 -0.0388544 -0.0398273 0.0272285 0.00802735 -0.0145895 -0.000123021 0.00560077 0.0134035 -0.0225064 -0.0579568 -0.0386041
internal_weight=438.91 224.94 117.495 107.446 41.0112 213.97 44.237 24.2798 76.4836 65.5471 53.766 57.8969 49.5488 14.9564
internal_count=1816 910 478 432 165 906 185 101 313 269 221 233 199 62
is_linear=0
shrinkage=0.04


Tree=7
num_leaves=15
num_cat=0
split_feature=24 34 15 13 3 12 18 5 21 30 6 12 1 15
split_gain=178.816 20.0524 23.7696 19.5643 15.6274 12.0231 17.6619 13.4328 9.59337 9.13396 10.068 10.5042 7.84131 7.72806
threshold=1.0000000180025095e-35 1.0000000180025095e-35 7.5721844500000016e-05 1.7369593500000006e-05 0.3744527250000001 -0.00020651711092195543 0.43500000000000005 0.24461018500000001 0.43500000000000005 -1.0587464009346086 0.055000000000000007 -1.3579621991055555e-05 262.33850000000007 2.0461867500000003e-05
decision_type=2 2 2 2 2 2 2 2 2 2 2 2 2 2
left_child=1 3 9 8 -4 6 7 -2 -1 -3 -11 -12 -5 -9
right_child=5 2 4 12 -6 -7 -8 13 -10 10 11 -13 -14 -15
leaf_value=0.0007461511650112163 0.023092615365944136 -0.028684964023159145 1.4686788993778811e-06 -0.063262012512164179 -0.055973150709063349 0.031196868635072303 0.036088631267019312 -0.0074948042035530285 -0.033452707982544377 -0.03710210201544327 0.030641042141607379 -0.0041173412329901142 -0.021501360632488472 -0.064550204571345221
leaf_weight=20.092518240213394 9.2776303142309207 15.303628996014593 11.353737995028494 40.610085725784302 26.859614491462708 168.3818590939045 19.56028351187706 7.1186303943395606 37.841205716133118 7.7223495393991461 25.407494455575939 30.744254589080814 8.7428498864173871 8.1436783373355848
leaf_count=81 39 62 46 164 108 721 83 30 152 31 105 126 35 33
internal_value=2.09908e-05 -0.0248575 -0.0134335 -0.0373575 -0.0393423 0.0263274 0.0077351 -0.0148649 -0.0215919 -0.0009292 0.00572082 0.0116101 -0.0558641 -0.0379385
internal_weight=437.16 224.678 117.391 107.287 38.2134 212.482 44.1002 24.5399 57.9337 79.1777 63.8741 56.1517 49.3529 15.2623
internal_count=1816 910 478 432 154 906 185 102 233 324 262 231 199 63
is_linear=0
shrinkage=0.04


Tree=8
num_leaves=15
num_cat=0
split_feature=24 34 14 13 3 12 18 5 21 9 28 28 4 14
split_gain=165.598 18.5606 22.7338 18.3378 13.6669 11.2449 16.4029 12.3486 8.89981 8.13312 9.96802 9.27979 8.52988 7.95028
threshold=1.0000000180025095e-35 1.0000000180025095e-35 5.9601909500000005e-05 1.7369593500000006e-05 0.3744527250000001 -0.00020651711092195543 0.43500000000000005 0.24461018500000001 0.38500000000000006 0.095000000000000015 13.500000000000002 16.500000000000004 0.28198726500000004 3.2360468500000007e-05
decision_type=2 2 2 2 2 2 2 2 2 2 2 2 2 2
left_child=1 3 9 8 -4 6 7 -2 -1 -3 12 -12 -11 -7
right_child=5 2 4 -5 -6 13 -8 -9 -10 10 11 -13 -14 -15
leaf_value=0.00624511951121977 0.02228240738220055 -0.031901341733507275 -0.0013058767030056579 -0.053943944275886349 -0.051968474088972483 0.034988450886788987 0.03495965267649092 -0.036285147164898751 -0.029827696912714245 0.052649867434926077 -0.050034978938582719 0.0025727910810535706 0.0079102159447653857 0.014292346246694305
leaf_weight=14.641248896718023 9.2313265949487704 10.964946150779722 12.099291443824766 49.071623980998993 28.794887393712997 128.37145179510117 19.387805685400963 15.317727863788603 43.32464911043644 8.6083285212516767 8.1003091335296649 15.886605128645895 32.790026858448982 38.636058464646339
leaf_count=59 39 44 49 199 116 556 83 63 174 36 33 65 135 165
internal_value=2.20548e-05 -0.0239065 -0.0129119 -0.0359496 -0.036979 0.0254636 0.007458 -0.0142616 -0.0207163 -2.12026e-05 0.00532502 -0.0151927 0.0172133 0.0302005
internal_weight=435.226 224.282 117.244 107.038 40.8942 210.944 43.9369 24.5491 57.9659 76.3502 65.3853 23.9869 41.3984 167.008
internal_count=1816 910 478 432 165 906 185 102 233 313 269 98 171 721
is_linear=0
shrinkage=0.04


Tree=9
num_leaves=15
num_cat=0
split_feature=24 1 14 42 28 13 42 29 20 12 21 30 3 14
split_gain=153.41 17.524 15.9847 12.5523 14.4175 13.1331 12.2961 10.6582 11.6791 10.5336 13.6747 11.4367 10.441 9.12807
threshold=1.0000000180025095e-35 241.72450000000003 9.7342745000000012e-06 0.58500000000000008 6.5000000000000009 2.5568427000000001e-05 0.085000000000000006 1.5000000000000002 0.7350000000000001 -0.00020458085291208403 0.56500000000000006 -0.32889768315842244 0.3744527250000001 5.1007721000000007e-05
decision_type=2 2 2 2 2 2 2 2 2 2 2 2 2 2
left_child=1 2 -1 4 -4 -5 -3 -8 13 10 -2 -12 -6 -9
right_child=9 6 3 5 12 -7 7 8 -10 -11 11 -13 -14 -15
leaf_value=0.014388777269261752 0.031595422378605818 -0.053917785876049423 -0.011691554180820419 -0.0041871814463418488 -0.013306514189056545 -0.050068721525832229 0.023565379622066746 -0.0119484550349712 0.021166677979858873 0.029306608964707184 -0.042055004098647777 0.012901495294074146 -0.06133494967687933 -0.0532221901934034
leaf_weight=10.797822892665861 20.365591615438461 8.9744171500205976 15.521091565489767 29.818106710910797 8.3792017698287946 15.004776209592817 17.029557183384895 40.546577125787735 13.469166934490202 164.68520872294903 11.392678558826448 12.940744638442991 53.367294266819954 10.87224720418453
leaf_count=44 88 36 63 121 34 61 70 165 55 717 47 54 217 44
internal_value=2.325e-05 -0.0230029 -0.0322602 -0.0363859 -0.0461545 -0.0195464 -0.00946826 -0.00459863 -0.0119901 0.0246325 0.00741169 -0.0128286 -0.0548173 -0.0206756
internal_weight=433.164 223.78 132.888 122.09 77.2676 44.8229 90.892 81.9175 64.888 209.384 44.699 24.3334 61.7465 51.4188
internal_count=1816 910 540 496 314 182 370 334 264 906 189 101 251 209
is_linear=0
shrinkage=0.04


Tree=10
num_leaves=15
num_cat=0
split_feature=24 34 15 13 3 15 6 18 4 28 3 4 28 1
split_gain=142.106 16.6163 19.4909 16.6633 13.0924 10.3622 12.4855 10.0855 8.67431 7.87518 7.6109 7.56446 7.08752 6.44483
threshold=1.0000000180025095e-35 1.0000000180025095e-35 7.5721844500000016e-05 1.7369593500000006e-05 0.3744527250000001 2.0312837000000004e-05 0.45500000000000007 0.43500000000000005 0.26034209000000003 11.500000000000002 0.43731058500000003 0.26768285500000005 18.500000000000004 80.022000000000006
decision_type=2 2 2 2 2 2 2 2 2 2 2 2 2 2
left_child=1 3 9 8 -4 -2 -7 -8 13 -3 -5 -11 -13 -1
right_child=5 2 4 10 -6 6 7 -9 -10 11 -12 12 -14 -15
leaf_value=-0.03914933650347923 0.033313962884328176 0.011778742027335014 0.00064755641804317579 -0.020963288899946076 -0.050653755871975036 0.024312792976137528 -0.034763051212944443 0.011213567225991263 -0.038600772119965113 0.012881340760125407 -0.059277314671620347 -0.04210539317367723 0.00071472389564532408 0.002142312177529253
leaf_weight=7.7249203771352759 97.658074766397476 40.931460559368134 11.363983482122419 10.625190228223799 26.56764055788517 76.715632975101471 11.778785824775694 21.693356931209564 22.389368176460266 11.929550498723982 37.833044350147247 16.015054464340214 10.075763687491415 27.859424874186516
leaf_count=31 430 169 46 43 108 334 48 94 90 49 156 65 41 112
internal_value=2.37779e-05 -0.0221305 -0.0117187 -0.0335648 -0.0352843 0.023827 0.0154188 -0.00496552 -0.0190947 -0.000396812 -0.0508764 -0.0135046 -0.0255691 -0.00682159
internal_weight=431.161 223.315 116.883 106.432 37.9316 207.846 110.188 33.4721 57.9737 78.9518 48.4582 38.0204 26.0908 35.5843
internal_count=1816 910 478 432 154 906 476 142 233 324 199 155 106 143
is_linear=0
shrinkage=0.04


Tree=11
num_leaves=15
num_cat=0
split_feature=24 34 14 9 3 15 6 18 15 9 30 17 30 6
split_gain=131.713 15.4363 18.4859 13.1487 11.6923 9.76 11.6145 9.27523 8.02548 7.24321 8.89563 8.43828 6.56414 6.73744
threshold=1.0000000180025095e-35 1.0000000180025095e-35 5.9601909500000005e-05 0.58500000000000008 0.36042768000000008 2.0312837000000004e-05 0.45500000000000007 0.43500000000000005 1.6320889500000003e-05 0.095000000000000015 -1.0587464009346086 -0.014533489999999998 0.48685137984415094 0.27500000000000008
decision_type=2 2 2 2 2 2 2 2 2 2 2 2 2 2
left_child=1 3 9 8 -4 -2 -7 -8 -1 -3 -11 -12 13 -13
right_child=5 2 4 -5 -6 6 7 -9 -10 10 11 12 -14 -15
leaf_value=-0.0059266903702173837 0.032317716094519285 -0.029749938417247029 0.0060484068435871195 -0.010548184489317084 -0.044918535712680667 0.023508163264299744 -0.033275200121069104 0.010799169954531212 -0.046292379752466112 -0.025981474248461131 0.028604398950288056 -0.034780323900930665 0.027870113247959041 0.013209185153254923
leaf_weight=8.9523075520992261 96.662201210856438 10.962740406394003 9.371781110763548 31.200100407004356 31.103748559951782 76.178818330168724 11.81251001358032 21.626159563660622 65.837931364774704 11.837130934000013 26.102903276681896 11.708989664912233 7.7745462954044333 7.7982982546091071
leaf_count=36 430 44 38 126 127 334 48 94 270 48 109 48 32 32
internal_value=2.38144e-05 -0.0213114 -0.0112724 -0.032361 -0.0331176 0.0230522 0.0148818 -0.0047705 -0.0414607 0.000333599 0.00539015 0.0123463 -0.00320931 -0.0155959
internal_weight=428.93 222.65 116.66 105.99 40.4755 206.28 109.617 33.4387 74.7902 76.1846 65.2219 53.3847 27.2818 19.5073
internal_count=1816 910 478 432 165 906 476 142 306 313 269 221 112 80
is_linear=0
shrinkage=0.04


Tree=12
num_leaves=15
num_cat=0
split_feature=24 1 14 42 42 28 15 15 6 29 22 3 18 13
split_gain=122.098 15.0298 13.7221 11.0898 10.7764 13.101 11.6029 9.19577 10.8041 9.0786 10.4061 8.87534 8.53513 7.98378
threshold=1.0000000180025095e-35 241.72450000000003 9.7342745000000012e-06 0.085000000000000006 0.58500000000000008 6.5000000000000009 7.5721844500000016e-05 2.0312837000000004e-05 0.45500000000000007 1.5000000000000002 0.25750000000000006 0.36509599000000004 0.43500000000000005 1.5781961000000002e-05
decision_type=2 2 2 2 2 2 2 2 2 2 2 2 2 2
left_child=1 2 -1 -3 5 -4 -6 -2 -9 -5 -11 -7 -10 -12
right_child=7 3 4 9 6 11 -8 8 12 10 13 -13 -14 -15
leaf_value=0.014121611935402017 0.031356684682375804 -0.050239131595904027 -0.0092446872818575804 0.022751036966351518 -0.0084117477236377806 -0.0093832918958963053 -0.063681848741136193 0.02273071225326934 -0.031872794706958987 0.021222063777347384 0.0012055560858033197 -0.056206389161169212 0.010399447890453972 -0.031137930215383008
leaf_weight=10.762685149908064 95.660285905003548 8.9482430517673475 15.428471952676771 16.921970769762993 37.357248201966286 7.3721498101949683 7.2579618990421286 75.643972113728523 11.838408723473547 13.392335221171377 20.158376485109329 53.353319466114044 21.560465782880783 30.973652973771095
leaf_count=44 430 36 63 70 152 30 30 334 48 55 82 221 94 127
internal_value=2.42998e-05 -0.0205273 -0.0291569 -0.00797061 -0.0330138 -0.0421594 -0.017403 0.0223051 0.0143644 -0.00332671 -0.0101658 -0.050522 -0.00458417 -0.0183868
internal_weight=426.63 221.926 131.532 90.3946 120.769 76.1539 44.6152 204.703 109.043 81.4463 64.5244 60.7255 33.3989 51.132
internal_count=1816 910 540 370 496 314 182 906 476 334 264 251 142 209
is_linear=0
shrinkage=0.04


Tree=13
num_leaves=15
num_cat=0
split_feature=24 1 14 42 42 28 13 31 17 18 4 3 31 14
split_gain=113.197 13.9663 12.7202 10.2522 10.0955 12.29 10.928 8.72751 9.53586 10.5519 10.3827 8.40009 8.12534 9.39593
threshold=1.0000000180025095e-35 241.72450000000003 9.7342745000000012e-06 0.085000000000000006 0.58500000000000008 6.5000000000000009 2.5568427000000001e-05 0.16236612982621776 -0.88861042499999987 0.43500000000000005 0.26292637000000008 0.3744527250000001 -0.33351137427777766 3.2748627500000005e-05
decision_type=2 2 2 2 2 2 2 2 2 2 2 2 2 2
left_child=1 2 -1 -3 5 -4 -6 8 9 10 -2 -7 -10 -14
right_child=7 3 4 -5 6 11 -8 -9 12 -11 -12 -13 13 -15
leaf_value=0.013576477573789414 0.0052457724767185545 -0.048363753722512719 -0.0088774663629979794 -0.0031986250922048827 -0.0028192605945608546 -0.011676910880039058 -0.044941382269139379 0.037098659600940637 0.032256031686011641 0.021342149186265563 -0.052234020197548699 -0.054887332719307111 0.021026356375179564 -0.017807122223865535
leaf_weight=10.747358933091162 11.530994325876238 8.9238836467266065 15.424100786447523 81.315447643399239 29.828143522143364 8.3575896173715574 14.7166890501976 45.12483324110508 65.563324451446533 19.440561294555664 8.9156780093908292 51.891522258520126 39.175353854894638 13.371526062488554
leaf_count=44 49 36 63 334 121 34 61 204 294 87 37 217 177 58
internal_value=2.40738e-05 -0.0197734 -0.0281164 -0.00766506 -0.0318437 -0.0407371 -0.0167355 0.0215839 0.0171529 0.000242951 -0.019818 -0.0488933 0.0228636 0.0111445
internal_weight=424.327 221.205 130.965 90.2393 120.218 75.6732 44.5448 203.122 157.997 39.8872 20.4467 60.2491 118.11 52.5469
internal_count=1816 910 540 370 496 314 182 906 702 173 86 251 529 235
is_linear=0
shrinkage=0.04


Tree=14
num_leaves=15
num_cat=0
split_feature=24 34 14 15 3 15 6 5 17 1 9 28 5 28
split_gain=104.946 13.5285 15.5388 10.8845 10.3043 8.6041 9.65364 7.49351 7.48894 6.73053 6.16468 7.8452 7.89108 7.7869
threshold=1.0000000180025095e-35 1.0000000180025095e-35 5.9601909500000005e-05 2.3027259000000003e-05 0.36042768000000008 2.0312837000000004e-05 0.45500000000000007 0.26850562000000006 1.2518551650000003 262.33850000000007 0.095000000000000015 13.500000000000002 0.26198726500000008 16.500000000000004
decision_type=2 2 2 2 2 2 2 2 2 2 2 2 2 2
left_child=1 3 10 7 -4 -2 -7 -1 -8 -5 -3 12 -12 -13
right_child=5 2 4 9 -6 6 8 -9 -10 -11 11 13 -14 -15
leaf_value=-0.009101205791869113 0.029743820757973129 -0.026817043164736515 0.006833361206756189 -0.049335644803120887 -0.041114187541331219 0.021168158311277555 -0.018249967537126616 -0.045750186776640875 0.022007857119527716 -0.011086205107215504 0.050703890071422689 -0.044404924095785489 0.0073392457563366924 0.0037596015536674435
leaf_weight=42.179232254624367 93.83677114546299 10.930512920022009 9.3743185549974424 42.215312585234642 30.518266022205353 74.504040569067001 22.076071724295616 11.322768554091452 11.116150245070456 8.9151533991098386 8.4528927803039533 8.1137883216142672 32.638651579618454 15.88592019677162
leaf_count=170 430 44 38 180 127 334 93 46 49 36 36 33 135 65
internal_value=2.42786e-05 -0.0190421 -0.00962978 -0.0294694 -0.029847 0.0208895 0.0131747 -0.0168573 -0.00476753 -0.0426664 0.000979274 0.005647 0.0162597 -0.0125238
internal_weight=422.08 220.547 115.914 104.632 39.8926 201.533 107.696 53.502 33.1922 51.1305 76.0218 65.0913 41.0915 23.9997
internal_count=1816 910 478 432 165 906 476 216 142 216 313 269 171 98
is_linear=0
shrinkage=0.04


Tree=15
num_leaves=15
num_cat=0
split_feature=24 35 15 13 3 30 12 18 5 3 19 28 2 2
split_gain=97.3451 12.6894 14.58 13.8947 10.3865 8.35415 8.22808 11.9959 10.2965 7.53832 7.03999 5.81457 7.00491 6.66396
threshold=0.91999950000000008 1.0000000180025095e-35 7.5721844500000016e-05 1.7369593500000006e-05 0.3744527250000001 -0.38578182580423276 -0.00020458085291208403 0.43500000000000005 0.24461018500000001 0.43731058500000003 0.66500000000000015 11.500000000000002 11.393376500000002 7.7097295000000008
decision_type=2 2 2 2 2 2 2 2 2 2 2 2 2 2
left_child=1 2 11 5 -4 -3 7 8 -2 -5 -7 12 -1 -13
right_child=6 3 4 9 -6 10 -8 -9 -10 -11 -12 13 -14 -15
leaf_value=-0.024698051217203424 0.020055456585425624 0.0071320704141584557 0.0019025343259592511 -0.01469333518848184 -0.044029029369309101 -0.034283899848440907 0.024564320052647196 0.028485489760017885 -0.033931513515972532 -0.053407842959928481 0.007326911623572469 0.021472890863622474 0.01857091146161358 -0.019467642982565089
leaf_weight=7.2744505107402793 8.9979320764541644 18.137361228466034 11.364586412906645 10.363845005631445 25.668728172779083 31.359560966491699 155.93355242908001 19.195385590195656 15.202236667275427 36.001119211316109 8.2082779854536039 8.0728958398103696 33.810795709490776 30.003426074981689
leaf_count=30 39 73 46 43 108 127 714 87 63 156 33 33 141 123
internal_value=2.40717e-05 -0.0183039 -0.00921781 -0.0284486 -0.0299338 -0.0153475 0.0202771 0.00487176 -0.0138585 -0.0447541 -0.0256518 0.000473525 0.0109098 -0.0107875
internal_weight=419.594 220.265 116.195 104.07 37.0333 57.7052 199.329 43.3956 24.2002 46.365 39.5678 79.1616 41.0852 38.0763
internal_count=1816 913 481 432 154 233 903 189 102 199 160 327 171 156
is_linear=0
shrinkage=0.04


Tree=16
num_leaves=15
num_cat=0
split_feature=24 16 14 42 42 28 15 15 6 29 20 14 13 30
split_gain=90.313 11.7358 11.058 9.35565 9.1033 11.2632 9.96203 8.16487 8.69288 7.9551 9.3613 7.51832 7.2373 6.91155
threshold=1.0000000180025095e-35 58.585814000000006 9.7342745000000012e-06 0.085000000000000006 0.58500000000000008 6.5000000000000009 7.5721844500000016e-05 2.0312837000000004e-05 0.45500000000000007 1.5000000000000002 0.7350000000000001 5.1007721000000007e-05 0.00016912481900000005 -0.20627269716666666
decision_type=2 2 2 2 2 2 2 2 2 2 2 2 2 2
left_child=1 3 -3 -1 5 -4 -6 -2 -9 -5 11 -11 -7 -10
right_child=7 2 4 9 6 12 -8 8 13 10 -12 -13 -14 -15
leaf_value=-0.045659565533322573 0.028280074534238413 0.013463125461120183 -0.0070329540831670255 0.022127352509148896 -0.0064071337590007518 -0.051948061095788277 -0.058510775193538478 0.019678885058983527 -0.019010365701554458 -0.0086290947426167081 0.021107495871360644 -0.046279435251151552 -0.014469789629711663 0.018955071070903707
leaf_weight=8.8586456775665265 92.088433787226677 10.706650733947752 15.297303378581999 16.817415207624435 37.198565378785133 48.551875248551369 6.9716426879167548 73.372804969549179 20.853383973240852 40.252755627036095 13.30589799582958 10.752904593944548 9.9300976842641813 12.137790203094481
leaf_count=36 430 44 63 70 152 208 30 334 88 165 55 45 42 54
internal_value=2.34097e-05 -0.0177094 -0.0254598 -0.00662853 -0.0289929 -0.0375911 -0.014631 0.0195604 0.012011 -0.00236665 -0.00877181 -0.0165665 -0.0455843 -0.00504249
internal_weight=417.096 218.644 128.656 89.9876 117.949 73.7793 44.1702 198.452 106.364 81.129 64.3116 51.0057 58.482 32.9912
internal_count=1816 910 539 371 495 313 182 906 476 335 265 210 250 142
is_linear=0
shrinkage=0.04


Tree=17
num_leaves=15
num_cat=0
split_feature=24 34 13 15 3 31 12 30 3 4 17 15 31 19
split_gain=83.7816 11.4826 12.9736 12.6606 9.5908 8.21134 8.93165 7.73294 7.24265 6.70547 5.99329 5.77609 9.24817 6.78848
threshold=0.91999950000000008 1.0000000180025095e-35 1.7369593500000006e-05 7.5721844500000016e-05 0.3744527250000001 0.16236612982621776 -0.00032995874244789997 -0.38578182580423276 0.43731058500000003 0.25551566000000003 -0.20350134499999997 2.3446010000000003e-05 -0.81264384807871626 0.14500000000000005
decision_type=2 2 2 2 2 2 2 2 2 2 2 2 2 2
left_child=1 2 7 -3 -5 6 -2 -1 -4 10 -9 -8 -13 -14
right_child=5 3 8 4 -6 -7 11 9 -10 -11 -12 12 13 -15
leaf_value=0.0075049877312338012 -0.021143542324874948 0.00064113210044917338 -0.013192793573419057 0.0026699270266010021 -0.041593948378488559 0.034332191130604699 0.023454583738410934 -0.027708612697213159 -0.051376042958958944 -0.043171489040396541 0.013960474379684515 0.038399412375275457 0.032578757721101886 -0.0095702384374985582
leaf_weight=18.117620095610619 10.408618062734602 78.97826161980629 10.274618774652479 11.36626499891281 25.188465371727943 43.450470700860023 89.283435970544815 12.854057714343073 35.104229256510735 16.835983887314796 9.6831816732883436 11.586509346961973 7.4494618326425543 34.10172326862812
leaf_count=73 43 327 43 46 108 204 416 52 156 69 39 53 34 153
internal_value=2.26864e-05 -0.0170219 -0.0267418 -0.00836735 -0.0278306 0.0189883 0.0146259 -0.0141213 -0.0427306 -0.0240727 -0.00980538 0.0172401 0.00679833 -0.0020136
internal_weight=414.683 218.403 102.87 115.533 36.5547 196.28 152.83 57.4908 45.3788 39.3732 22.5372 142.421 53.1377 41.5512
internal_count=1816 913 432 481 154 903 699 233 199 160 91 656 240 187
is_linear=0
shrinkage=0.04


Tree=18
num_leaves=15
num_cat=0
split_feature=24 1 42 28 13 42 31 12 29 20 13 19 16 3
split_gain=77.7295 10.8907 10.1159 12.6786 10.66 8.76036 7.76594 8.27685 7.46797 8.56667 6.67602 6.73201 6.57891 6.363
threshold=0.91999950000000008 241.72450000000003 0.58500000000000008 6.5000000000000009 2.5568427000000001e-05 0.085000000000000006 0.16236612982621776 -0.00032995874244789997 1.5000000000000002 0.7350000000000001 4.2361865500000008e-05 0.62500000000000011 75.755599500000017 0.36509599000000004
decision_type=2 2 2 2 2 2 2 2 2 2 2 2 2 2
left_child=1 2 3 -1 12 -3 7 -2 -7 10 11 -10 -4 -5
right_child=6 5 4 13 -6 8 -8 -9 9 -11 -12 -13 -14 -15
leaf_value=-0.0020858728377147365 -0.020282438057108866 -0.043695408837849684 -0.032813848625356162 -0.006888734939719629 -0.039670070805988542 0.021934951281910357 0.033405515839694762 0.016662910546963533 -0.024017829022017587 0.020745530052772417 -0.037849374055777978 0.010573790672288131 0.0095265480155054504 -0.046609820884698394
leaf_weight=16.463952824473381 10.416333645582197 8.7920302152633649 7.3228850066661826 7.3575599640607825 14.171194732189177 16.974311590194702 42.881217747926712 141.494156062603 17.31610244512558 13.259409785270689 14.920007795095442 18.74735489487648 29.629470303654671 52.466029599308968
leaf_count=68 43 36 30 30 61 71 204 656 71 55 63 77 121 230
internal_value=2.20865e-05 -0.0164189 -0.0239434 -0.03317 -0.0101753 -0.00576768 0.018373 0.0141296 -0.00166188 -0.00789666 -0.0153457 -0.0060356 0.00113591 -0.0417246
internal_weight=412.212 217.42 127.411 76.2875 51.1236 90.0092 194.792 151.91 81.2172 64.2429 50.9835 36.0635 36.9524 59.8236
internal_count=1816 913 540 328 212 373 903 699 337 266 211 148 151 260
is_linear=0
shrinkage=0.04


Tree=19
num_leaves=15
num_cat=0
split_feature=24 34 13 15 19 31 17 18 4 31 14 24 30 5
split_gain=72.0995 10.4328 12.0716 11.1926 9.3097 7.35184 7.85295 8.33413 8.7492 8.14342 8.47517 9.46054 7.26784 7.17137
threshold=0.91999950000000008 1.0000000180025095e-35 1.7369593500000006e-05 7.5721844500000016e-05 0.18500000000000003 0.16236612982621776 -0.88861042499999987 0.43500000000000005 0.26292637000000008 -0.33351137427777766 3.2748627500000005e-05 5.9999985000000011 -0.38578182580423276 0.24560018500000003
decision_type=2 2 2 2 2 2 2 2 2 2 2 2 2 2
left_child=1 2 12 -3 -5 6 7 8 -2 -8 11 13 -1 -11
right_child=5 3 -4 4 -6 -7 9 -9 -10 10 -12 -13 -14 -15
leaf_value=0.0079210796612655329 0.0036276725754031554 0.00085859381116287596 -0.040850461470137191 0.0078372490061631699 -0.038248838408383889 0.032507692168754654 0.028709285762874823 0.0173979863386102 -0.049509773954451608 -0.0030883839049929392 -0.020772262458169849 -0.012483330526293298 -0.022736269898175218 0.044060016404387142
leaf_weight=18.094572305679321 11.279501840472223 78.849209278821945 44.32081826031208 9.5376979261636716 26.496235102415085 42.314528897404671 61.964738950133324 18.629364609718323 8.8458897769451124 7.2220103740692165 12.99533027410507 12.022859007120131 39.12443445622921 18.092656672000885
leaf_count=73 49 327 199 40 114 204 292 87 37 34 57 57 160 86
internal_value=2.11646e-05 -0.0158382 -0.0251797 -0.00758163 -0.0260505 0.0177715 0.0136434 -0.00188174 -0.0197283 0.0190012 0.00704968 0.0167331 -0.0130414 0.0306091
internal_weight=409.79 216.423 101.54 114.883 36.0339 193.367 151.052 38.7548 20.1254 112.298 50.3329 37.3375 57.219 25.3147
internal_count=1816 913 432 481 154 903 699 173 86 526 234 177 233 120
is_linear=0
shrinkage=0.04


Tree=20
num_leaves=15
num_cat=0
split_feature=24 1 13 28 42 10 15 6 28 29 20 13 17 29
split_gain=66.8925 9.81757 9.44546 8.14748 8.12986 7.97012 7.20041 7.5161 6.7505 6.70888 7.81805 6.48011 11.3917 6.27379
threshold=0.91999950000000008 241.72450000000003 1.2140600000000002e-07 11.500000000000002 0.085000000000000006 77195.175000000017 2.0312837000000004e-05 0.45500000000000007 20.500000000000004 1.5000000000000002 0.7350000000000001 8.9369500000000012e-08 -0.90185909999999991 3.5000000000000004
decision_type=2 2 2 2 2 2 2 2 2 2 2 2 2 2
left_child=1 2 -1 5 -3 -4 11 -8 -5 -6 13 12 -2 -11
right_child=6 4 3 8 9 -7 7 -9 -10 10 -12 -13 -14 -15
leaf_value=-0.0048212588973060152 -0.025369802033712224 -0.041844277967030018 0.010670167833440268 -0.045365182273909892 0.021223655211465776 -0.028833212654318995 0.017341272271907897 -0.0059008129614659954 -0.0096761612099816024 -0.026351399517419171 0.020289735230506728 0.034508432173084316 0.025854183262579281 0.0021011722640331188
leaf_weight=35.037811040878296 9.3981836140155774 8.7178656607866269 13.025777980685232 45.573488131165504 16.903528347611427 21.929075136780739 70.662192210555077 32.501385435461998 10.418348848819731 29.154659241437912 13.216668099164961 52.640316277742386 26.627308815717697 21.575847715139389
leaf_count=144 43 36 54 202 71 95 331 142 45 122 55 256 131 89
internal_value=2.1672e-05 -0.0152691 -0.0224669 -0.029265 -0.00514474 -0.0141124 0.0172034 0.0100189 -0.0387246 -0.00118755 -0.00711163 0.0255626 0.0124911 -0.0142504
internal_weight=407.382 215.553 125.985 90.9467 89.5686 34.9549 191.829 103.164 55.9918 80.8507 63.9472 88.6658 36.0255 50.7305
internal_count=1816 913 540 396 373 149 903 473 247 337 266 430 174 211
is_linear=0
shrinkage=0.04


Tree=21
num_leaves=15
num_cat=0
split_feature=24 35 13 30 2 30 31 3 31 17 31 14 24 18
split_gain=62.0378 9.34881 11.2704 10.4565 8.49004 7.41647 7.35483 7.10241 6.96286 7.00886 7.69872 7.65701 8.94165 7.50563
threshold=0.91999950000000008 1.0000000180025095e-35 1.7369593500000006e-05 -1.0587464009346086 51.089678500000012 -0.79941610992082668 -0.84735018727842248 0.43731058500000003 0.16236612982621776 -0.88861042499999987 -0.33351137427777766 3.2748627500000005e-05 5.9999985000000011 0.43500000000000005
decision_type=2 2 2 2 2 2 2 2 2 2 2 2 2 2
left_child=1 3 -3 4 -1 -5 -7 -4 9 13 -11 12 -12 -2
right_child=8 2 7 5 -6 6 -8 -9 -10 10 11 -13 -14 -15
leaf_value=0.00069550098417093652 -0.018972465977644012 -0.01195377269744095 -0.0095048660261844373 0.03759379962878559 -0.048550032180466433 -0.03873431501133668 6.2569210605188796e-06 -0.047913379145494962 0.031153551148030187 0.027288848011316414 0.029135765785744786 -0.020275970938023167 -0.012972133138923144 0.016375404246483434
leaf_weight=8.8865900337696093 20.114129990339279 57.055540010333061 10.02428577840328 7.4412674307823172 15.152010858058928 8.768991753458975 74.075304627418518 33.268410965800285 41.401389881968498 60.738620772957802 24.759754776954651 13.030717447400091 11.969512179493902 18.406628265976906
leaf_count=37 86 233 43 31 66 38 309 156 204 292 120 57 57 87
internal_value=2.16992e-05 -0.0147211 -0.0236308 -0.00690057 -0.0303449 -0.000658487 -0.0040944 -0.03902 0.0166421 0.0126105 0.0177324 0.0060674 0.0154134 -0.00208196
internal_weight=405.093 214.672 100.348 114.324 24.0386 90.2856 82.8443 43.2927 190.421 149.019 110.499 49.76 36.7293 38.5208
internal_count=1816 913 432 481 103 378 347 199 903 699 526 234 177 173
is_linear=0
shrinkage=0.04


Tree=22
num_leaves=15
num_cat=0
split_feature=24 1 14 42 3 13 42 15 29 42 17 13 17 29
split_gain=57.5532 8.80294 9.25438 7.84748 9.53891 8.70233 7.61061 6.74167 6.99004 7.00696 6.95393 6.19301 10.1878 5.99536
threshold=0.91999950000000008 241.72450000000003 9.7342745000000012e-06 0.58500000000000008 0.38251866000000007 9.0016000000000017e-08 0.085000000000000006 2.0312837000000004e-05 2.5000000000000004 0.85500000000000009 1.7214090050000002 8.9369500000000012e-08 -0.90185909999999991 1.5000000000000002
decision_type=2 2 2 2 2 2 2 2 2 2 2 2 2 2
left_child=1 2 -1 4 -4 -5 -3 11 9 -9 -10 12 -2 -8
right_child=7 6 3 5 -6 -7 13 8 10 -11 -12 -13 -14 -15
leaf_value=0.014531009002122459 -0.024072809483679142 -0.040267754913115808 -0.0021864739232847997 0.028519118200674615 -0.039733578306366577 -0.019132139310050766 0.020461114691221995 0.031642654017673078 -0.0028819258295996204 -0.014101876301955156 0.040697575206212228 0.03316387190799356 0.02437070251517158 -0.006381506191319922
leaf_weight=10.685813024640082 9.4743732362985593 8.6442690640687925 13.352537974715231 7.3930526971817008 57.213018879294395 35.951846405863762 16.829905554652214 29.435131102800369 59.556305661797523 6.549762323498725 6.497660979628562 51.416903853416443 26.026469558477402 63.714846596121788
leaf_count=44 43 36 55 30 259 152 71 140 273 30 30 256 131 266
internal_value=2.16591e-05 -0.0141942 -0.0210615 -0.0244004 -0.0326288 -0.0110046 -0.0046006 0.0161055 0.00913225 0.0233165 0.00140495 0.0242918 0.0114422 -0.000772714
internal_weight=402.742 213.785 124.596 113.91 70.5656 43.3449 89.189 188.957 102.039 35.9849 66.054 86.9177 35.5008 80.5448
internal_count=1816 913 540 496 314 182 373 903 473 170 303 430 174 337
is_linear=0
shrinkage=0.04


Tree=23
num_leaves=15
num_cat=0
split_feature=24 28 16 28 6 10 10 17 22 31 17 31 13 18
split_gain=53.3775 8.81232 14.1333 13.5948 12.218 11.3318 9.31903 7.49826 7.24588 6.52748 6.21737 7.36928 7.09714 6.85222
threshold=0.91999950000000008 11.500000000000002 25.375893000000001 19.500000000000004 0.59500000000000008 77056.860000000001 75965.675000000017 0.22995967500000003 0.39750000000000008 0.16236612982621776 -0.88861042499999987 -0.33351137427777766 2.5568427000000001e-05 0.43500000000000005
decision_type=2 2 2 2 2 2 2 2 2 2 2 2 2 2
left_child=1 5 7 4 -4 6 -1 -3 -7 10 13 -12 -13 -2
right_child=9 2 3 -5 -6 8 -8 -9 -10 -11 11 12 -14 -15
leaf_value=0.0017149076290394897 -0.018264282841102514 0.02683334684148829 -0.044112319643256744 -0.0025793147808712553 0.008187017675237199 -0.035106338684218613 0.049833332924619847 -0.020307031223963493 -0.0058609312194650518 0.029804034080306643 0.026005564474470711 0.013135131620477275 -0.023601278075432438 0.015589009628878787
leaf_weight=33.076582416892052 20.136585772037506 12.97640770673752 58.309819832444191 24.00086821615696 8.1454816758632642 21.041724294424057 7.9966074824333182 9.245171979069708 38.095863789319992 40.47148172557354 59.594843938946724 38.406123444437981 10.774694517254828 18.224409908056259
leaf_count=138 86 54 262 102 34 89 34 38 162 204 292 186 48 87
internal_value=2.19935e-05 -0.0136865 -0.0213613 -0.0283828 -0.0377019 -0.00505688 0.0110832 0.00722084 -0.0162667 0.0155777 0.0116646 0.0165475 0.0050868 -0.00218138
internal_weight=400.497 212.889 112.678 90.4562 66.4553 100.211 41.0732 22.2216 59.1376 187.608 147.137 108.776 49.1808 38.361
internal_count=1816 913 490 398 296 423 172 92 251 903 699 526 234 173
is_linear=0
shrinkage=0.04


Tree=24
num_leaves=15
num_cat=0
split_feature=24 28 2 28 6 30 10 10 4 17 36 15 28 9
split_gain=49.5067 8.21167 13.1554 12.7608 11.4615 10.9955 8.65564 9.31118 7.88059 6.91578 6.73247 6.36557 6.71189 8.05236
threshold=0.91999950000000008 11.500000000000002 25.033204000000001 19.500000000000004 0.59500000000000008 -0.74593212383483609 77056.860000000001 75965.675000000017 0.26556382000000006 0.22995967500000003 1.0000000180025095e-35 2.0312837000000004e-05 18.500000000000004 0.54500000000000015
decision_type=2 2 2 2 2 2 2 2 2 2 2 2 2 2
left_child=1 5 9 4 10 -1 7 -7 -8 -3 -4 -2 13 -13
right_child=11 2 3 -5 -6 6 8 -9 -10 -11 -12 12 -14 -15
leaf_value=0.042095957092405954 0.023119557858169881 0.025772643080038439 -0.047702231457399713 -0.0024767534741183175 0.0078574269618579655 -0.0035286254284134749 -0.0052446048659628413 0.046987819492248242 -0.035677845883981374 -0.019523149703006681 -0.0045270141408410283 0.010579600665870796 0.029647100697577953 -0.018309664867603367
leaf_weight=7.3884509652853003 85.251595988869667 12.970164105296137 51.158182173967361 23.99505902826786 8.1476237028837186 30.173528403043747 30.850381538271904 7.2384070903062812 24.366525202989578 9.2319912463426572 6.5144876688718787 61.246069207787514 19.070235550403595 20.639507994055748
leaf_count=31 430 54 235 102 34 126 130 31 105 38 27 292 92 89
internal_value=2.18868e-05 -0.0131945 -0.0206327 -0.0274481 -0.0365515 -0.00486389 -0.0086096 0.00624522 -0.0186744 0.00693797 -0.0428253 0.0150714 0.00827524 0.00329797
internal_weight=398.242 212.035 112.018 89.8154 65.8203 100.017 92.6288 37.4119 55.2169 22.2022 57.6727 186.207 100.956 81.8856
internal_count=1816 913 490 398 296 423 392 157 235 92 262 903 473 381
is_linear=0
shrinkage=0.04


Tree=25
num_leaves=15
num_cat=0
split_feature=24 15 16 28 10 19 5 28 31 29 19 5 15 34
split_gain=45.9275 7.89697 8.24746 8.48567 8.95798 7.61881 7.33365 6.29893 6.16588 6.04433 9.62039 12.6596 5.9368 9.90618
threshold=0.91999950000000008 1.654721e-05 48.768287500000007 11.500000000000002 77056.860000000001 0.41500000000000004 0.25831166500000008 19.500000000000004 0.16236612982621776 1.5000000000000002 0.35500000000000004 0.24988649000000004 2.3304314000000001e-05 1.0000000180025095e-35
decision_type=2 2 2 2 2 2 2 2 2 2 2 2 2 2
left_child=1 5 9 4 -4 -1 -6 -5 12 -3 11 -11 -2 -14
right_child=8 2 3 7 6 -7 -8 -9 -10 10 -12 -13 13 -15
leaf_value=-0.018871686515005232 0.017242260088017373 0.019596898671766949 0.01346305840377752 -0.038176434737481432 -0.0075072285709873298 0.021986796399559486 -0.04741520405092145 -0.0084724977197695502 0.028566398709076197 0.054354471550185579 -0.022261218028506349 -0.017087205131248933 -0.022154723834515163 0.012890933212367478
leaf_weight=11.981988146901132 88.459178239107132 13.233953788876532 17.28580778837204 51.889400109648705 19.785985380411152 18.695101663470268 11.738443523645399 14.646606132388113 39.601539582014084 7.211067512631419 35.687931016087532 8.8259591013193113 19.811760067939758 37.017442390322685
leaf_count=50 435 56 72 240 85 77 53 63 204 30 150 37 87 177
internal_value=2.09308e-05 -0.0127332 -0.0159253 -0.0223453 -0.00967827 0.00602812 -0.0223674 -0.0316377 0.014575 -0.00452547 -0.0106972 0.0150366 0.0107614 0.000673339
internal_weight=395.872 210.982 180.305 115.346 48.8102 30.6771 31.5244 66.536 184.89 64.9589 51.725 16.037 145.288 56.8292
internal_count=1816 913 786 513 210 127 138 303 903 273 217 67 699 264
is_linear=0
shrinkage=0.04


Tree=26
num_leaves=15
num_cat=0
split_feature=24 15 16 28 10 10 21 4 28 42 29 14 4 18
split_gain=42.5906 7.32987 7.69788 7.94757 8.30216 7.24109 10.36 6.91682 5.95048 5.94776 8.30729 8.46372 6.53772 6.72818
threshold=0.91999950000000008 1.654721e-05 48.768287500000007 11.500000000000002 77056.860000000001 77329.49500000001 0.55500000000000016 0.2783116650000001 19.500000000000004 1.4850000000000001 1.5000000000000002 3.1716729000000007e-05 0.27633225500000008 0.57500000000000007
decision_type=2 2 2 2 2 2 2 2 2 2 2 2 2 2
left_child=1 5 -3 4 -4 -1 -7 -6 -5 10 -2 -12 13 -13
right_child=9 2 3 8 7 6 -8 -9 -10 -11 11 12 -14 -15
leaf_value=0.028680016757612583 0.03424760764244808 -0.0043546348260581043 0.012940786440205966 -0.037065440108290673 -0.0072164438539551604 0.01838008959113286 -0.042690117075428316 -0.046147160909628213 -0.0081445854897496499 -0.022769897594317183 0.017055555592563065 -0.00093256571849763411 0.010559549856035345 -0.051731267546735217
leaf_weight=12.847662404179575 31.147498667240143 64.803238764405251 17.264538362622261 51.318616151809692 19.760456383228306 9.3286376595497149 8.4888107776641828 11.581745982170103 14.627248123288153 6.7466283589601508 109.29775211215019 9.4268664717674273 19.532895311713219 7.48329272866249
leaf_count=54 159 273 72 240 85 38 35 53 63 31 546 42 91 34
internal_value=2.03472e-05 -0.0122825 -0.0153724 -0.0216052 -0.00933303 0.00578977 -0.0107157 -0.0216023 -0.0306506 0.0140909 0.0154968 0.0114894 -0.00520409 -0.0234126
internal_weight=393.656 210.021 179.356 114.553 48.6067 30.6651 17.8174 31.3422 65.9459 183.635 176.888 145.741 36.4431 16.9102
internal_count=1816 913 786 513 210 127 73 138 303 903 872 713 167 76
is_linear=0
shrinkage=0.04


Tree=27
num_leaves=15
num_cat=0
split_feature=24 34 13 30 2 3 30 30 19 31 28 14 2 2
split_gain=39.488 6.96515 10.066 8.06254 7.04724 6.94527 6.61054 6.29966 6.09352 5.79762 5.79647 8.90202 7.4449 8.95389
threshold=0.91999950000000008 1.0000000180025095e-35 1.7369593500000006e-05 -1.0587464009346086 51.089678500000012 0.43731058500000003 -0.38578182580423276 -0.79941610992082668 0.66500000000000015 -0.84735018727842248 18.500000000000004 1.6985843000000004e-05 43.772178000000004 13.617484500000002
decision_type=2 2 2 2 2 2 2 2 2 2 2 2 2 2
left_child=1 2 6 4 -3 -4 -1 -5 -8 -9 11 -2 13 -13
right_child=10 3 5 7 -6 -7 8 9 -10 -11 -12 12 -14 -15
leaf_value=0.011229461302053078 0.022196775204280733 0.0020187904395687576 -0.005356972986728702 0.03589814897980298 -0.043504440005440501 -0.044215271286575888 -0.026426441268751929 -0.034176028151558055 0.012625291076655689 0.00080777041731329143 0.027729270305383254 -0.012045345136618238 -0.01049950915131446 0.025192655356578476
leaf_weight=17.987843886017799 57.816844642162323 8.7927530258893984 9.6704928129911405 7.3327298909425727 14.273017808794974 30.794287517666817 30.216363236308098 8.4511532634496671 8.10862749814987 73.480171427130699 37.106550082564354 15.432983458042143 40.849387973546982 31.253873392939568
leaf_count=73 299 37 43 31 66 156 127 38 33 309 191 75 187 151
internal_value=2.01857e-05 -0.0118454 -0.0197104 -0.00506926 -0.0261508 -0.0349287 -0.00877497 0.0003782 -0.0181641 -0.00280078 0.0136187 0.0100164 0.00197146 0.0128831
internal_weight=391.567 209.107 96.7776 112.33 23.0658 40.4648 56.3128 89.2641 38.325 81.9313 182.46 145.353 87.5362 46.6869
internal_count=1816 913 432 481 103 199 233 378 160 347 903 712 413 226
is_linear=0
shrinkage=0.04


Tree=28
num_leaves=15
num_cat=0
split_feature=24 2 15 28 10 28 14 36 10 21 6 1 31 3
split_gain=36.6253 6.96276 8.02625 6.67337 8.55276 8.55262 11.509 7.70358 6.58038 9.11207 5.99198 5.73425 5.64394 5.4035
threshold=0.91999950000000008 1.6484485000000002 1.654721e-05 10.500000000000002 77056.860000000001 19.500000000000004 3.2360468500000007e-05 1.0000000180025095e-35 77329.49500000001 0.55500000000000016 0.59500000000000008 274.77350000000007 0.16236612982621776 0.99946771500000009
decision_type=2 2 2 2 2 2 2 2 2 2 2 2 2 2
left_child=1 -1 8 4 -4 7 -7 10 -3 -10 11 -5 13 -2
right_child=12 2 3 5 -6 6 -8 -9 9 -11 -12 -13 -14 -15
leaf_value=0.034969344319244047 0.011204210377680126 0.029055872767069883 0.010201679603691876 -0.042837361981950775 -0.018263258461409235 -0.023100888152748217 0.030465830780067336 0.005743644323075228 0.017935411109348466 -0.039874995895258419 0.001524356878126134 -0.007853674397385069 0.026790188262127035 -0.026155119977582974
leaf_weight=5.0489729344844809 136.43052287399769 12.272065907716753 29.199841767549515 51.94122976064682 40.059116661548615 17.214605689048771 10.23195958137512 8.9376167953014356 9.3145973831415194 8.2052302062511426 6.9094764143228522 8.7611000388860685 38.346862897276878 6.4889940023422232
leaf_count=21 668 52 123 249 176 74 43 37 38 34 29 37 204 31
internal_value=1.94493e-05 -0.0114304 -0.0125842 -0.015882 -0.00626233 -0.0222885 -0.00313145 -0.0291572 0.00659418 -0.0091395 -0.0337707 -0.0377882 0.013164 0.00950798
internal_weight=389.362 208.096 203.047 173.255 69.259 103.996 27.4466 76.5494 29.7919 17.5198 67.6118 60.7023 181.266 142.92
internal_count=1816 913 892 768 299 469 117 352 124 72 315 286 903 699
is_linear=0
shrinkage=0.04


Tree=29
num_leaves=15
num_cat=0
split_feature=24 15 16 28 10 4 19 42 1 42 29 20 14 11
split_gain=33.9556 6.14474 6.49151 7.03924 7.09695 6.59811 6.38754 5.76695 6.88642 5.49792 7.89683 8.40975 7.98602 6.76358
threshold=0.91999950000000008 1.654721e-05 48.768287500000007 11.500000000000002 77056.860000000001 0.29589939000000004 0.41500000000000004 0.60500000000000009 147.74900000000002 1.4850000000000001 1.5000000000000002 0.095000000000000015 3.2748627500000005e-05 77625.12000000001
decision_type=2 2 2 2 2 2 2 2 2 2 2 2 2 2
left_child=1 6 -3 4 -4 -6 -1 -5 -9 10 -2 -12 -13 -14
right_child=9 2 3 7 5 -7 -8 8 -10 -11 11 12 13 -15
leaf_value=-0.017336985920991314 0.032686009245625973 -0.0037870233646913462 0.01241135768017494 -0.036496859031141762 -0.0097708010172988108 -0.05437153764366863 0.020247515913046632 0.020954737171511466 -0.028020023202786716 -0.022713073711282949 -0.03146943789256669 0.017746608803203688 0.0045889931882532198 -0.040244180689385817
leaf_weight=11.866993173956873 30.182963743805885 64.548147261142731 17.241260185837746 43.991484358906746 23.983711332082752 6.8151217401027671 18.535522848367691 7.1265472620725658 12.925590127706526 6.746808946132659 7.3604853898286811 104.49709837138653 24.537214010953907 6.8972958624362937
leaf_count=50 159 273 72 214 105 33 77 31 58 31 37 532 113 31
internal_value=1.80917e-05 -0.0110328 -0.0138918 -0.0197111 -0.00813698 -0.01964 0.00557718 -0.028393 -0.0106144 0.0127131 0.0140909 0.0101741 0.012429 -0.00524821
internal_weight=387.256 207.034 176.632 112.084 48.0401 30.7988 30.4025 64.0436 20.0521 180.222 173.475 143.292 135.932 31.4345
internal_count=1816 913 786 513 210 138 127 303 89 903 872 713 676 144
is_linear=0
shrinkage=0.04


Tree=30
num_leaves=15
num_cat=0
split_feature=24 2 15 6 34 28 28 11 17 10 21 28 42 14
split_gain=31.4764 6.35906 6.95038 6.2253 6.95525 6.8838 10.9064 7.54956 6.60491 6.1534 8.10732 5.49624 5.57604 6.62296
threshold=0.91999950000000008 1.6484485000000002 1.654721e-05 0.63500000000000012 1.0000000180025095e-35 11.500000000000002 16.500000000000004 75274.770000000019 -0.14843952999999996 77329.49500000001 0.55500000000000016 1.0000000180025095e-35 1.4850000000000001 3.2360468500000007e-05
decision_type=2 2 2 2 2 2 2 2 2 2 2 2 2 2
left_child=1 -1 9 4 -4 -6 7 -7 -8 -3 -11 -2 13 -13
right_child=11 2 3 -5 5 6 8 -9 -10 10 -12 12 -14 -15
leaf_value=0.033646980661297649 -0.018857532457939207 0.027930788273179376 -0.026537297855598042 0.014387319695668553 0.0032546897231116225 -0.052638446425891203 0.027557160696772692 -0.01134828331412582 -0.015167927315176261 0.016441523400369369 -0.038188573540561301 0.020069723640685405 -0.021638208344780762 0.0016636711224650028
leaf_weight=5.0605442821979514 8.6310723721981031 12.194297090172769 68.064177006483078 10.913963362574576 38.421976745128632 17.053447768092159 9.1626621186733264 12.12101213634014 15.724308431148527 9.2964521050453204 8.1629000753164274 121.57992821931839 6.797604411840438 42.113353237509727
leaf_count=21 39 52 322 45 162 80 39 53 67 38 34 634 31 199
internal_value=1.78651e-05 -0.0106385 -0.0117529 -0.0148453 -0.0168325 -0.00969013 -0.0188901 -0.0354838 0.000562213 0.0061279 -0.00910009 0.0122838 0.0138603 0.0153344
internal_weight=385.298 206.176 201.115 171.462 160.548 92.4834 54.0614 29.1745 24.887 29.6536 17.4594 179.122 170.491 163.693
internal_count=1816 913 892 768 723 401 239 133 106 124 72 903 864 833
is_linear=0
shrinkage=0.04


Tree=31
num_leaves=15
num_cat=0
split_feature=24 2 28 28 6 2 30 36 3 10 42 33 15 28
split_gain=29.1932 5.88098 6.58769 9.18323 9.11402 8.4595 10.1138 8.03217 7.90687 7.26332 6.93055 6.22586 6.5481 5.46889
threshold=1.0000000180025095e-35 1.6484485000000002 11.500000000000002 19.500000000000004 0.59500000000000008 11.393376500000002 -0.77649829218708366 1.0000000180025095e-35 0.48580751000000005 77056.860000000001 0.58500000000000008 2.0000000000000004 4.7498990500000005e-05 18.500000000000004
decision_type=2 2 2 2 2 2 2 2 2 2 2 2 2 2
left_child=1 -1 5 4 7 -3 -7 -4 -5 11 -10 -8 -13 -2
right_child=13 2 3 8 -6 6 9 -9 10 -11 -12 12 -14 -15
leaf_value=0.0322332800302466 0.0083229943694886031 -0.044094560608135332 -0.037389502096392697 0.031075520294497918 0.012039935676591038 0.051690931831589626 0.041399954479747113 0.0022092747453908916 -0.029553629426593234 -0.013217198618765602 0.016639969144822034 0.017032299596403459 -0.026960889813156041 0.025802226884336987
leaf_weight=5.0709656774997702 142.89069952070713 7.649835690855979 54.259987458586693 9.1187450289726275 8.7867712974548322 5.6172134280204764 8.144657105207445 9.6539492756128293 14.53961117565632 50.302197650074959 8.0870991945266706 14.63097605109215 8.5924538969993574 35.819502487778664
leaf_count=21 715 32 266 38 37 24 35 40 65 221 33 62 36 191
internal_value=1.69076e-05 -0.0103056 -0.0113875 -0.0183194 -0.026157 -0.00376126 -0.000226467 -0.0314083 -0.00037043 -0.0037973 -0.0130434 0.0113085 0.000755227 0.0118264
internal_weight=383.165 204.454 199.383 104.446 72.7007 94.9373 87.2875 63.9139 31.7455 81.6703 22.6267 31.3681 23.2234 178.71
internal_count=1816 910 889 479 343 410 378 306 136 354 98 133 98 906
is_linear=0
shrinkage=0.04


Tree=32
num_leaves=15
num_cat=0
split_feature=26 13 37 17 13 15 30 17 31 3 16 10 34 4
split_gain=22.1742 6.75382 7.43222 6.86653 7.55263 9.39386 6.64125 7.91934 6.2251 7.34452 6.80688 5.85718 6.59174 9.70817
threshold=1.0000000180025095e-35 2.5568427000000001e-05 1.0000000180025095e-35 -0.88861042499999987 8.6425500000000008e-08 2.1374609000000005e-05 -0.50529635944444429 -0.24052072499999996 0.66804597638400209 0.86935830000000014 45.855418500000006 73026.200000000026 1.0000000180025095e-35 0.32708648500000009
decision_type=2 2 2 2 2 2 2 2 2 2 2 2 2 2
left_child=11 3 -3 4 -2 -6 -5 -8 9 10 -9 -1 13 -13
right_child=1 2 -4 6 5 -7 7 8 -10 -11 -12 12 -14 -15
leaf_value=-0.046425853833610357 -0.025483723506026932 0.033688746510568239 -0.011347241833224614 0.036477170651840106 0.028458548308712132 -0.01807760116548375 0.038538541955405729 0.0099953636668159984 0.033602850352479105 0.014336294871044987 -0.037650704105942359 -0.011018715219058483 -0.0010412910621322392 -0.051196164432941116
leaf_weight=6.5786180943250647 12.429083615541456 7.015105962753295 35.699232712388039 27.970604851841927 19.148807510733608 10.885918602347372 15.706537023186682 8.0715357810258883 10.801803067326544 24.679607957601547 11.82729424536228 78.227058663964272 101.0651568621397 10.972296759486197
leaf_count=31 57 35 172 150 97 50 83 43 61 127 61 356 438 55
internal_value=1.5888e-05 0.00998945 -0.00395084 0.014197 0.000739845 0.0115918 0.0199657 0.013469 0.0063589 -0.000242581 -0.0183241 -0.00931888 -0.00803586 -0.0159609
internal_weight=381.079 184.236 42.7143 141.521 42.4638 30.0347 99.0574 71.0868 55.3802 44.5784 19.8988 196.843 190.265 89.1994
internal_count=1816 936 207 729 204 147 525 375 292 231 104 880 849 411
is_linear=0
shrinkage=0.04


Tree=33
num_leaves=15
num_cat=0
split_feature=24 2 13 7 3 28 19 34 13 30 1 19 30 28
split_gain=25.2697 5.38526 6.07491 12.5632 12.4615 7.74256 5.86723 5.66658 8.07597 5.64906 5.70212 5.30616 5.0983 5.08385
threshold=0.91999950000000008 1.6484485000000002 2.2032155000000003e-05 0.095000000000000015 0.43351389500000009 18.500000000000004 0.66500000000000015 1.0000000180025095e-35 0.00010502907650000001 -0.38578182580423276 195.96800000000005 0.85500000000000009 0.055532606901018987 18.500000000000004
decision_type=2 2 2 2 2 2 2 2 2 2 2 2 2 2
left_child=1 -1 3 -3 5 11 9 -6 12 -5 -11 -4 -9 -2
right_child=13 2 4 6 7 -7 -8 8 -10 10 -12 -13 -14 -15
leaf_value=0.031121467573804438 0.0077222643320308476 -0.057108965817832202 0.0059870246898891897 0.0075544647703324084 -0.044616525710320258 0.037976416088993395 0.017613693635190348 -0.019167910977879267 -0.051924531219145545 -0.029150373565201004 -0.00028945431455036863 -0.028401086681217529 0.019886773002519394 0.024736916989222035
leaf_weight=5.0707854926586142 140.95550501346588 6.6475562006235114 16.900517210364345 30.418616339564323 23.394192606210709 7.0801266878843299 22.536398380994797 18.637091472744945 8.9830223619937879 22.155543446540833 21.662290766835213 12.481434926390646 7.5004035234451285 35.092624843120575
leaf_count=21 712 28 76 127 131 30 95 83 46 97 93 55 31 191
internal_value=1.76025e-05 -0.00958332 -0.0106237 -0.00391608 -0.0179276 0.000427165 -0.00026213 -0.029365 -0.0192057 -0.0056888 -0.0148824 -0.00862102 -0.0079608 0.0111139
internal_weight=379.516 203.468 198.397 103.42 94.9768 36.4621 96.7728 58.5147 35.1205 74.2365 43.8178 29.382 26.1375 176.048
internal_count=1816 913 892 440 452 161 412 291 160 317 190 131 114 903
is_linear=0
shrinkage=0.04


Tree=34
num_leaves=15
num_cat=0
split_feature=24 4 37 10 28 28 19 12 30 15 2 1 17 28
split_gain=23.4337 5.40759 7.20077 7.04903 10.2148 10.6363 6.45843 5.89713 5.85096 5.16984 7.14981 8.00687 7.06351 5.56405
threshold=1.0000000180025095e-35 0.26200570500000003 1.0000000180025095e-35 77042.490000000005 11.500000000000002 18.500000000000004 0.42500000000000004 -7.0372344924574102e-05 -0.48438437957428104 1.7022053000000002e-05 49.492868500000007 289.13650000000007 1.2518551650000003 20.500000000000004
decision_type=2 2 2 2 2 2 2 2 2 2 2 2 2 2
left_child=1 2 -1 4 -3 -6 -5 -8 -9 -2 11 -11 13 -12
right_child=9 3 -4 6 5 -7 7 8 -10 10 12 -13 -14 -15
leaf_value=0.034178885498240719 0.021148547126456162 0.0092050992122149899 -0.0053081297596072894 -0.045571696122776235 -0.037742429587399734 0.0066543476791774726 -0.041488956547070063 0.026514956488583416 -0.017902419835877321 0.021975223836141186 -0.018207028740997944 -0.010167813539423221 0.025669496627075312 0.020763133254298426
leaf_weight=8.22208623588085 52.871809810400009 34.085691034793854 72.932656079530716 17.749840274453163 23.123665198683739 13.778505727648733 9.6807489246130007 6.8944890499115035 15.220178037881848 53.897892966866493 36.110272541642189 16.104634836316109 9.845864996314047 6.9980516582727423
leaf_count=35 292 145 326 84 112 57 50 29 72 277 168 81 52 36
internal_value=1.53544e-05 -0.00928967 -0.00130755 -0.014664 -0.00658273 -0.0211656 -0.0262428 -0.0154524 -0.00405482 0.0106889 0.00619119 0.0145805 -0.00489897 -0.0118808
internal_weight=377.516 201.688 81.1547 120.533 70.9879 36.9022 49.5453 31.7954 22.1147 175.829 122.957 70.0025 52.9542 43.1083
internal_count=1816 910 361 549 314 169 235 151 101 906 614 358 256 204
is_linear=0
shrinkage=0.04


Tree=35
num_leaves=15
num_cat=0
split_feature=24 10 34 13 30 3 2 4 5 30 20 4 3 1
split_gain=21.7245 5.25846 5.94159 8.4906 6.98351 6.68315 6.25145 5.74646 7.03413 8.4555 6.77538 5.38442 10.7524 6.48582
threshold=1.0000000180025095e-35 73026.200000000026 1.0000000180025095e-35 1.7369593500000006e-05 -1.0587464009346086 0.43731058500000003 51.089678500000012 0.25607610000000008 0.24437543000000003 -0.28407971093386702 0.57500000000000007 0.28850562000000007 0.49723108500000007 285.03250000000008
decision_type=2 2 2 2 2 2 2 2 2 2 2 2 2 2
left_child=1 -1 3 7 6 -5 -4 8 -3 -10 -9 -6 -13 -14
right_child=-2 2 4 5 11 -7 -8 10 9 -11 -12 12 13 -15
leaf_value=-0.044550040070559488 0.010325623873205425 -0.011852577196453846 0.0059770495467289268 -0.00068436979581990183 0.016898347575538732 -0.039934813950166535 -0.039107540170392772 -0.0062839011280807142 0.056521583372736287 -0.0036067530049644137 -0.053678872160096543 -0.035616426000920812 0.015899073691479092 -0.024323250616870937
leaf_weight=6.4299825429916373 174.7966081649065 17.018346935510639 7.9748556613922146 9.279921740293501 32.014897242188454 27.536573216319084 12.850061535835264 16.127358227968219 7.3082688748836517 7.6682903468608838 6.8868811875581732 12.865517795085905 28.548888683319092 8.2731066942214948
leaf_count=31 906 71 34 43 137 156 64 70 30 32 30 55 122 35
internal_value=1.51006e-05 -0.00896098 -0.00778355 -0.0151737 -0.00116477 -0.0300414 -0.0218425 -0.00522307 0.00574173 0.0257347 -0.0204666 0.00410572 -0.00413689 0.00686199
internal_weight=375.58 200.783 194.353 91.8256 102.527 36.8165 20.8249 55.0091 31.9949 14.9766 23.0142 81.7024 49.6875 36.822
internal_count=1816 910 879 432 447 199 98 233 133 62 100 349 212 157
is_linear=0
shrinkage=0.04


Tree=36
num_leaves=15
num_cat=0
split_feature=24 31 17 30 13 18 42 24 11 1 24 10 34 13
split_gain=20.1305 5.22375 5.52844 6.22301 5.98916 9.93152 5.62331 5.41985 5.04006 5.0299 5.01386 4.91104 5.53981 8.04146
threshold=1.0000000180025095e-35 0.16236612982621776 -1.8040733299999998 -0.50529635944444429 1.5781961000000002e-05 0.30500000000000005 0.63500000000000012 2.9999995000000004 77771.12000000001 195.96800000000005 6.5000000000000009 73026.200000000026 1.0000000180025095e-35 1.7369593500000006e-05
decision_type=2 2 2 2 2 2 2 2 2 2 2 2 2 2
left_child=11 2 -2 -4 6 -6 9 -7 -3 -5 -11 -1 13 -13
right_child=1 8 3 4 5 7 -8 -9 -10 10 -12 12 -14 -15
leaf_value=-0.043230675006256096 -0.02093121422764959 0.032339792645203536 0.02119691218753756 -0.017102877775036388 0.01676189460255318 -0.055211121475825395 0.028611233574629313 -0.0081969550123239792 -0.0019383431047630582 0.023373478770847028 -0.015495834833328026 -0.005028863868048513 -0.0011226772246615273 -0.029308095666762887
leaf_weight=6.3625492155551902 10.89023621380329 26.726700946688652 42.754583895206451 14.818173483014105 10.501323506236078 8.4722429364919645 17.46855229139328 7.3069434016942969 9.2344071716070157 18.359549880027775 7.4703096747398368 54.870426446199417 102.23099558055401 36.243689492344856
leaf_count=31 51 154 225 73 51 39 91 35 50 98 39 233 447 199
internal_value=1.29868e-05 0.00995875 0.00642135 0.00876404 0.00246568 -0.0133801 0.00963118 -0.03344 0.0235376 0.00147447 0.012132 -0.00865264 -0.00751476 -0.0146867
internal_weight=373.711 174.003 138.042 127.152 84.3971 26.2805 58.1166 15.7792 35.9611 40.648 25.8299 199.708 193.345 91.1141
internal_count=1816 906 702 651 426 125 301 74 204 210 137 910 879 432
is_linear=0
shrinkage=0.04


Tree=37
num_leaves=15
num_cat=0
split_feature=24 2 28 30 28 3 14 2 1 10 11 20 13 20
split_gain=18.6525 5.00569 5.77118 8.8462 7.73006 8.35237 7.94098 7.31764 5.97406 5.2787 5.02257 5.64953 4.98016 4.82339
threshold=1.0000000180025095e-35 1.6484485000000002 11.500000000000002 -0.77679829405132517 19.500000000000004 0.8473032250000001 3.2360468500000007e-05 9.3578990000000015 274.77350000000007 77056.860000000001 75667.635000000024 0.67500000000000016 2.2752066500000004e-05 0.59500000000000008
decision_type=2 2 2 2 2 2 2 2 2 2 2 2 2 2
left_child=1 -1 3 -3 5 8 -6 -5 -4 10 11 -9 -7 -11
right_child=-2 2 4 7 6 12 -8 9 -10 13 -12 -13 -14 -15
leaf_value=0.030967273539338779 0.0096217510973934384 0.049155495664478251 -0.037472548229579905 -0.045751528638146272 -0.013407568236214834 0.018683031681888757 0.029719342094002048 -0.019447488396827303 -0.0021917236720689712 -0.0010767601255749527 0.031605277928825698 0.02351110107236408 -0.025773854466762766 -0.027384792261564539
leaf_weight=5.0535716712474814 172.99367471039295 5.0777320861816397 43.439176484942436 6.5698604732751837 21.1004733145237 10.194741278886797 10.101551622152327 11.602252468466764 9.3281490802764875 32.825319051742554 11.760811135172842 8.4768436551094037 6.6690566390752783 16.886874198913574
leaf_count=21 906 22 226 28 93 43 43 49 40 148 51 36 34 76
internal_value=1.41383e-05 -0.00833428 -0.00935788 -0.00218244 -0.0159901 -0.0234039 0.000554625 -0.00514061 -0.0312356 -0.00186898 0.010847 -0.00131155 0.00110185 -0.0100134
internal_weight=372.08 199.086 194.033 93.1997 100.833 69.6311 31.202 88.122 52.7673 81.5521 31.8399 20.0791 16.8638 49.7122
internal_count=1816 910 889 410 479 343 136 388 266 360 136 85 77 224
is_linear=0
shrinkage=0.04


Tree=38
num_leaves=15
num_cat=0
split_feature=24 3 42 1 28 28 6 3 2 30 42 29 20 14
split_gain=17.2764 5.95036 8.38005 7.89951 8.98385 9.60406 9.65444 8.15615 7.05048 5.76181 5.53525 7.50216 8.74296 6.72003
threshold=1.0000000180025095e-35 0.27066922500000007 0.085000000000000006 274.77350000000007 11.500000000000002 19.500000000000004 0.56500000000000006 0.70419434500000011 9.8747855000000015 -0.70007862666666665 1.5150000000000003 1.5000000000000002 0.075000000000000025 3.2748627500000005e-05
decision_type=2 2 2 2 2 2 2 2 2 2 2 2 2 2
left_child=1 -1 -3 4 9 6 -6 -5 -9 -4 11 -2 -13 -14
right_child=10 2 3 7 5 -7 -8 8 -10 -11 -12 12 13 -15
leaf_value=0.060971338752908708 0.029057518166662594 -0.046306023505800938 0.041415164790417541 0.025370003333216828 -0.038304790105103362 0.0016453193617629333 0.0012616323868340051 -0.042206537201065035 0.011985152298345344 -0.0038060563890945386 -0.029104795610228679 -0.041574676407428061 0.013869817208976995 -0.0073545949821608846
leaf_weight=1.9788624495267857 29.12279836833477 9.062136843800543 4.8362130075693122 21.744042679667473 43.11115925014019 22.611235737800598 12.795882582664488 7.0325933545827857 8.464796379208563 66.448014199733734 5.8089313656091681 5.7497791051864615 100.24227067828178 31.327415063977242
leaf_count=8 164 40 21 92 230 100 57 30 36 296 27 29 540 146
internal_value=1.27836e-05 -0.00804367 -0.00874009 -0.00692005 -0.0110187 -0.0203522 -0.0292489 0.00956668 -0.0126066 -0.000738064 0.00927753 0.0106171 0.00670623 0.00881618
internal_weight=370.336 198.085 196.106 187.044 149.803 78.5183 55.907 37.2414 15.4974 71.2842 172.251 166.442 137.319 131.57
internal_count=1816 910 902 862 704 387 287 158 66 317 906 879 715 686
is_linear=0
shrinkage=0.04


Tree=39
num_leaves=15
num_cat=0
split_feature=24 42 29 19 14 4 30 4 37 10 28 28 19 12
split_gain=16.0121 5.09083 7.09176 7.96554 6.23922 5.66024 5.50136 4.8414 6.09133 5.9052 8.26383 8.847 5.92545 5.45833
threshold=1.0000000180025095e-35 1.5150000000000003 1.5000000000000002 0.92500000000000016 3.2748627500000005e-05 0.27718388000000005 -0.4882298656477862 0.26200570500000003 1.0000000180025095e-35 77042.490000000005 11.500000000000002 18.500000000000004 0.42500000000000004 -7.0372344924574102e-05
decision_type=2 2 2 2 2 2 2 2 2 2 2 2 2 2
left_child=7 2 -2 4 6 -6 -4 8 -1 10 -9 -12 -11 -14
right_child=1 -3 3 -5 5 -7 -8 9 -10 12 11 -13 13 -15
leaf_value=0.032627782536913688 0.02834093422921034 -0.02766770472275696 0.02899206426494913 -0.039189537197975501 -0.02532424532158915 0.0087344344776605042 0.007734364119388948 0.0086823474412443639 -0.0038829964929672374 -0.042697441182118621 -0.034646846728602694 0.0062668643347025066 -0.03907033113611693 -0.0023121707771469689
leaf_weight=8.1425244063138944 28.673983097076416 5.8650413900613776 26.565871953964233 5.8535227179527274 14.546129226684572 16.852352187037468 73.013450995087624 33.832205250859261 71.612136214971542 17.00691744685173 21.975665658712387 13.745570138096808 9.2163862735033053 21.639882594347
leaf_count=35 164 27 148 29 65 81 392 145 326 84 112 57 50 101
internal_value=1.23247e-05 0.00895555 0.0102534 0.006463 0.00850326 -0.0070441 0.0134055 -0.00776063 -0.000155441 -0.0129264 -0.00548503 -0.0189032 -0.02374 -0.0132914
internal_weight=368.542 171.37 165.505 136.831 130.978 31.3985 99.5793 197.171 79.7547 117.417 69.5534 35.7212 47.8632 30.8563
internal_count=1816 906 879 715 686 146 540 910 361 549 314 169 235 151
is_linear=0
shrinkage=0.04


Tree=40
num_leaves=15
num_cat=0
split_feature=24 3 42 16 3 28 28 6 16 30 14 31 17 30
split_gain=14.8385 5.41372 7.79848 7.11901 8.44592 8.26221 8.80715 9.05093 5.57212 5.31816 4.93027 4.7953 5.08924 5.65435
threshold=1.0000000180025095e-35 0.27066922500000007 0.085000000000000006 25.375893000000001 0.70419434500000011 11.500000000000002 19.500000000000004 0.56500000000000006 11.738875500000001 -0.70007862666666665 3.0963589500000004e-05 0.16236612982621776 -1.8040733299999998 -0.50529635944444429
decision_type=2 2 2 2 2 2 2 2 2 2 2 2 2 2
left_child=1 -1 -3 4 -4 9 7 -7 -6 -5 -8 12 -2 -14
right_child=11 2 3 5 8 6 10 -9 -10 -11 -12 -13 13 -15
leaf_value=0.058373572141195769 -0.021036099575030744 -0.04471505435678097 0.025175618624496687 0.040227145245915689 -0.038288778566940962 -0.03696883041079875 -0.011370797892417928 0.0014866769813324679 0.0094754921769429935 -0.0034513856104733376 0.028839998719526194 0.021900292327846058 0.019583850996584631 0.001520482381585953
leaf_weight=1.9770502597093571 10.842458948493002 8.9064341932535154 21.921672791242599 4.7822189182043067 7.4643492251634589 42.073773264884949 14.766853973269464 12.763136491179464 8.2016123086214048 66.217694386839867 7.2858335375785819 34.77001291513443 41.563047826290131 83.292493388056755
leaf_count=8 51 40 93 21 32 230 67 57 35 296 31 204 225 426
internal_value=1.2436e-05 -0.00748336 -0.00815319 -0.00639752 0.00914676 -0.0103483 -0.0194335 -0.0280184 -0.0132827 -0.000509406 0.00191417 0.00864678 0.00525082 0.00753358
internal_weight=366.829 196.361 194.384 185.477 37.5876 147.89 76.8896 54.8369 15.666 70.9999 22.0527 170.468 135.698 124.856
internal_count=1816 910 902 862 160 702 385 287 67 317 98 906 702 651
is_linear=0
shrinkage=0.04


Tree=41
num_leaves=15
num_cat=0
split_feature=24 42 29 19 14 4 30 3 42 1 28 28 6 3
split_gain=13.7491 5.75297 6.86653 7.4061 5.79518 5.20067 5.14723 5.00541 7.31287 6.62017 7.65922 8.34133 8.56993 6.85497
threshold=1.0000000180025095e-35 1.5450000000000002 1.5000000000000002 0.92500000000000016 3.2748627500000005e-05 0.27718388000000005 -0.4882298656477862 0.27066922500000007 0.085000000000000006 274.77350000000007 11.500000000000002 19.500000000000004 0.56500000000000006 0.70419434500000011
decision_type=2 2 2 2 2 2 2 2 2 2 2 2 2 2
left_child=7 2 -2 4 6 -6 -4 -1 -9 10 -10 12 -12 -11
right_child=1 -3 3 -5 5 -7 -8 8 9 13 11 -13 -14 -15
leaf_value=0.056182216084981501 0.027598157819353288 -0.031775222969656611 0.027977852844786787 -0.037831315529638955 -0.024474456693977104 0.0081908254251950915 0.0072382342389663724 -0.043518891168068022 -0.00048898606659822841 0.023472508398374947 -0.036057858142699101 0.0017362051318512216 0.0014268880440205043 -0.011452574654433745
leaf_weight=1.9720892906188954 28.354171097278595 5.5328022539615622 26.01600307226181 5.9112988263368598 14.605887442827227 16.73205678164959 72.512935072183609 8.7876089066266996 70.929958879947662 21.630151093006134 41.424548014998436 22.521037966012955 12.765952751040457 15.389418944716452
leaf_count=8 166 25 148 29 65 81 392 40 317 92 230 100 57 66
internal_value=1.14703e-05 0.00834232 0.00969465 0.00595592 0.00794903 -0.0070337 0.0127144 -0.00722141 -0.00786777 -0.00617121 -0.00996365 -0.0187242 -0.0272274 0.00895379
internal_weight=365.086 169.665 164.132 135.778 129.867 31.3379 98.5289 195.421 193.449 184.661 147.641 76.7115 54.1905 37.0196
internal_count=1816 906 881 715 686 146 540 910 902 862 704 387 287 158
is_linear=0
shrinkage=0.04


Tree=42
num_leaves=15
num_cat=0
split_feature=24 42 29 20 30 9 1 9 14 42 14 28 41 17
split_gain=12.7423 5.28684 6.49737 6.98144 5.4219 5.14685 8.92271 6.59029 9.13458 7.33721 9.15399 6.21714 5.48171 4.54449
threshold=1.0000000180025095e-35 1.5450000000000002 2.5000000000000004 0.095000000000000015 -0.4882298656477862 0.65500000000000014 243.48700000000002 0.38500000000000006 1.1862096500000002e-05 0.57500000000000007 2.0784260000000004e-05 9.5000000000000018 0.030000000000000023 -0.62192638999999994
decision_type=2 2 2 2 2 2 2 2 2 2 2 2 2 2
left_child=-1 2 -2 -4 13 6 7 -6 -9 -10 -11 -7 -8 -5
right_child=1 -3 3 4 5 11 12 8 9 10 -12 -13 -14 -15
leaf_value=-0.0069645176738913194 0.022709836182325888 -0.030216667243657853 -0.035793599373269813 -0.0012527253033623607 -0.051453973544331538 -4.4661799227790914e-05 0.021007013896672814 0.036859292828725077 0.010022765848598288 -0.003363351864438909 -0.070355616993289266 0.047367085065098909 -0.016578348778381675 0.032624061389321266
leaf_weight=194.60100075602531 42.989176943898201 5.5843621790409079 6.479978695511817 9.318244546651842 7.292416423559188 10.080573096871378 24.533062562346458 5.5993838459253338 7.8110592067241695 6.142833545804022 6.962335005402565 7.8880147933959952 8.3122909665107709 19.795209750533104
leaf_count=910 245 25 32 47 36 50 132 33 40 32 31 45 43 115
internal_value=1.13318e-05 0.00805396 0.00936347 0.00459079 0.00689166 0.00176903 -0.00335292 -0.0177782 -0.00851657 -0.0206639 -0.0389541 0.0207686 0.0114952 0.0217812
internal_weight=363.39 168.789 163.205 120.215 113.735 84.622 66.6534 33.808 26.5156 20.9162 13.1052 17.9686 32.8454 29.1135
internal_count=1816 906 881 636 604 442 347 172 136 103 63 95 175 162
is_linear=0
shrinkage=0.04


Tree=43
num_leaves=15
num_cat=0
split_feature=24 42 29 19 14 30 11 3 42 1 28 28 42 10
split_gain=11.7993 4.86415 6.2073 6.30733 5.28512 4.68955 4.6568 4.63172 6.88248 6.13388 7.17691 7.86721 8.39202 7.81867
threshold=1.0000000180025095e-35 1.5450000000000002 1.5000000000000002 0.92500000000000016 3.2748627500000005e-05 -0.4882298656477862 77625.12000000001 0.27066922500000007 0.085000000000000006 274.77350000000007 11.500000000000002 19.500000000000004 0.60500000000000009 75288.97500000002
decision_type=2 2 2 2 2 2 2 2 2 2 2 2 2 2
left_child=7 2 -2 4 5 -4 -6 -1 -9 10 -10 12 -12 -14
right_child=1 -3 3 -5 6 -7 -8 8 9 -11 11 -13 13 -15
leaf_value=0.054401089221893704 0.026348757287475315 -0.028759827013841471 0.026786121982857906 -0.034361169492160074 0.001411809417173941 0.0067778434111911267 -0.035538955205857418 -0.042193115975393117 -0.00019102653101758931 0.0088851673607379111 -0.03928409571600313 0.0019463964801740528 -0.034032075182354855 0.014486083375824594
leaf_weight=1.9654034078121174 27.563374444842339 5.6315528750419608 25.351718589663506 6.0612550526857367 24.232943892478946 71.895429417490959 7.0431577563285819 8.6465081423521024 70.892218112945557 36.974656030535698 31.86890920996666 22.5080875903368 9.5259350836277026 12.019848868250845
leaf_count=8 166 25 148 29 115 392 31 40 317 158 185 100 50 52
internal_value=1.4315e-05 0.00778583 0.0090551 0.0055133 0.00739381 0.0119939 -0.00690924 -0.00669294 -0.00731691 -0.00567613 -0.00934333 -0.0178892 -0.0262476 -0.00696502
internal_weight=362.181 167.779 162.148 134.585 128.523 97.2471 31.2761 194.402 192.436 183.79 146.815 75.9228 53.4147 21.5458
internal_count=1816 906 881 715 686 540 146 910 902 862 704 387 287 102
is_linear=0
shrinkage=0.04


Tree=44
num_leaves=15
num_cat=0
split_feature=24 28 42 13 2 2 12 30 28 41 5 17 34 13
split_gain=10.9364 4.5167 4.88211 4.60439 6.24097 7.83814 6.64847 7.45899 5.664 4.40998 5.70393 6.20629 5.55006 5.33345
threshold=1.0000000180025095e-35 1.0000000180025095e-35 1.5450000000000002 4.746783000000001e-06 49.492868500000007 13.104581500000002 0.00020333353928692069 -0.33461116385474737 13.500000000000002 0.029999999999999947 0.24430247500000005 -0.74511860499999993 1.0000000180025095e-35 4.3412965000000007e-06
decision_type=2 2 2 2 2 2 2 2 2 2 2 2 2 2
left_child=9 -2 3 -3 5 8 7 -6 -5 10 11 -1 -11 -12
right_child=1 2 -4 4 6 -7 -8 -9 -10 12 13 -13 -14 -15
leaf_value=-0.040634268333247445 -0.020947073000074732 0.017822079977153155 -0.027394916783409856 -0.030446889937167092 0.0064360696239489056 0.022223298814927937 0.014975258269355939 -0.044974274159927927 0.019520614277168006 -0.024299356795479118 0.032583566831520708 -0.0016204519736327341 -0.0054322148914498136 0.0016005248921174837
leaf_weight=8.5769614875316602 8.4682048857212049 71.205271363258362 5.6747377663850775 9.6731453835964185 7.4020737856626537 36.818269953131676 10.311475500464438 11.578690111637117 5.809649631381034 36.663411162793636 12.557793155312536 27.256589874625206 78.057740569114685 30.432415202260017
leaf_count=39 39 410 25 51 39 204 52 55 31 194 53 126 354 144
internal_value=1.35552e-05 0.00751527 0.00903619 0.0103892 0.00390263 0.0121817 -0.0108795 -0.0249254 -0.0116975 -0.00645703 0.000827149 -0.0109586 -0.0114619 0.0106509
internal_weight=360.486 166.942 158.473 152.799 81.5933 52.3011 29.2922 18.9808 15.4828 193.545 78.8238 35.8336 114.721 42.9902
internal_count=1816 906 867 842 432 286 146 94 82 910 362 165 548 197
is_linear=0
shrinkage=0.04


Tree=45
num_leaves=15
num_cat=0
split_feature=14 1 42 13 21 13 31 13 4 22 13 42 2 4
split_gain=10.2602 8.0496 10.0845 8.70259 7.66965 7.44682 6.39812 7.09088 6.09377 6.08453 7.67009 5.79606 6.85788 7.67985
threshold=9.7342745000000012e-06 248.47700000000003 0.64500000000000013 2.5568427000000001e-05 0.68500000000000016 0.00015461392150000004 -0.32911501161596113 1.8367800000000004e-05 0.24776851000000003 0.47750000000000004 8.6425500000000008e-08 1.1250000000000002 13.617484500000002 0.29008484500000004
decision_type=2 2 2 2 2 2 2 2 2 2 2 2 2 2
left_child=-1 2 5 4 -4 6 7 8 -2 -8 -11 12 13 -3
right_child=1 11 3 -5 -6 -7 9 -9 -10 10 -12 -13 -14 -15
leaf_value=0.015049710875173055 -0.020991242329203356 0.020901639258870924 0.024132451794286153 -0.024471342904483356 -0.017189820390728586 0.012678629973960276 -0.015634301674432569 -0.028047587437541599 0.022698634463763443 -0.0018504437580240019 -0.051519261285247295 -0.026814135525683645 0.013390785093113127 -0.016748701190078152
leaf_weight=60.406439423561096 7.757805839180949 11.986442834138868 30.888567045331001 11.857561707496641 9.3657293319702131 13.158646218478678 34.073739096522331 14.476040475070475 14.954012408852575 6.3807179927825954 22.572556793689728 8.9427571743726713 81.06814406812191 31.313527643680573
leaf_count=325 35 55 154 62 41 66 172 79 75 30 119 39 411 153
internal_value=1.43578e-05 -0.00302528 -0.00891796 0.00564653 0.0145182 -0.0156125 -0.0193272 -0.00616944 0.00777523 -0.0270907 -0.0405733 0.00428959 0.00652612 -0.00632621
internal_weight=359.203 298.796 165.485 52.1119 40.2543 113.374 100.215 37.1879 22.7118 63.027 28.9533 133.311 124.368 43.3
internal_count=1816 1491 833 257 195 576 510 189 110 321 149 658 619 208
is_linear=0
shrinkage=0.04


Tree=46
num_leaves=15
num_cat=0
split_feature=14 1 17 32 30 2 31 14 2 42 9 28 29 22
split_gain=9.50732 7.47628 16.1239 8.00698 13.1465 5.45202 5.56602 5.12366 6.26406 8.12619 8.80773 7.02277 7.10258 5.04575
threshold=9.7342745000000012e-06 253.05300000000003 1.2518551650000003 0.35000000000000003 -1.0599373199723938 145.59906900000001 -0.31565286270952381 1.1701659500000001e-05 13.617484500000002 1.0950000000000002 0.085000000000000006 13.500000000000002 1.5000000000000002 0.44250000000000006
decision_type=2 2 2 2 2 2 2 2 2 2 2 2 2 2
left_child=13 2 3 4 -2 6 -5 -3 11 10 -10 12 -9 -1
right_child=1 7 -4 5 -6 -7 -8 8 9 -11 -12 -13 -14 -15
leaf_value=0.0009195666237056515 -0.048356013024133511 -0.032801742433631917 0.020632007249015923 -0.0037137791665942006 0.0034886625735818175 -0.010293858165584098 -0.038824707108944083 0.012175723985946036 -0.032964787725935071 -0.027413281090860969 0.02131465142277808 0.012023034404389633 -0.035007703852830668 0.024405218338149216
leaf_weight=25.254582077264786 9.029269725084303 5.625688672065734 26.105001017451286 9.114941291511057 58.706535384058952 34.49275628477335 34.822792164981365 7.3887035995721844 5.16650366783142 7.1778668314218512 64.462005585432053 19.289821967482567 16.511958688497543 34.812806710600853
leaf_count=132 51 29 136 49 283 173 177 39 25 31 331 91 76 193
internal_value=1.37868e-05 -0.00291346 -0.00832473 -0.0134963 -0.0034223 -0.0221967 -0.0315409 0.00450724 0.00625635 0.0131096 0.0172871 -0.00593095 -0.0204213 0.014531
internal_weight=357.961 297.894 172.271 146.166 67.7358 78.4305 43.9377 125.623 119.997 76.8064 69.6285 43.1905 23.9007 60.0674
internal_count=1816 1491 869 733 334 399 226 622 593 387 356 206 115 325
is_linear=0
shrinkage=0.04


Tree=47
num_leaves=15
num_cat=0
split_feature=24 3 17 16 18 18 13 5 1 3 29 42 21 21
split_gain=9.17467 4.39452 6.19602 8.85402 9.42492 10.9539 7.00824 7.3615 5.85681 5.14252 4.67924 5.46677 5.16841 4.48823
threshold=1.0000000180025095e-35 0.99946771500000009 1.2518551650000003 48.193231500000003 0.60500000000000009 0.43500000000000005 8.6425500000000008e-08 0.24560018500000003 294.23200000000003 0.84559895000000018 3.5000000000000004 0.44500000000000006 0.23500000000000001 0.47500000000000003
decision_type=2 2 2 2 2 2 2 2 2 2 2 2 2 2
left_child=-1 2 3 8 5 6 -5 -8 10 -9 -2 12 -12 -7
right_child=1 -3 -4 4 -6 13 7 9 -10 -11 11 -13 -14 -15
leaf_value=-0.0059370781842220778 0.030913092169471384 -0.023307556428485105 0.024503126562685579 -0.045750590521402165 -0.038806805560265042 0.0047470746748684966 0.028091044775183215 0.0012509659564478263 -0.01334366332228289 -0.045419996989829264 -0.0041165159314751343 -0.018431108996392956 0.042062552073319014 0.04249158498037614
leaf_weight=191.69201905280352 29.450986370444298 7.3468558937311164 30.586394801735878 8.0534702986478823 11.54974254965782 9.7903666943311709 8.1960893422365206 8.7802032232284528 9.8587034195661527 6.6297990679740897 7.0569012761116054 8.6010928303003293 8.6079161018133146 10.390087097883223
leaf_count=910 177 39 181 36 58 56 39 46 52 30 40 44 51 57
internal_value=1.37412e-05 0.00693147 0.00834156 0.00444819 -0.00613029 0.0011499 -0.0135301 -0.00253769 0.0149957 -0.0188281 0.0201969 0.00719089 0.0212592 0.0241802
internal_weight=356.591 164.899 157.552 126.965 63.3898 51.84 31.6596 23.6061 63.5756 15.41 53.7169 24.2659 15.6648 20.1805
internal_count=1816 906 867 686 322 264 151 115 364 76 312 135 91 113
is_linear=0
shrinkage=0.04


Tree=48
num_leaves=15
num_cat=0
split_feature=14 1 42 13 13 18 13 11 6 42 2 4 20 30
split_gain=8.71175 6.64299 8.70595 7.69531 6.94728 6.76437 5.75331 5.40696 5.29456 4.94001 5.7491 7.06024 6.09271 5.91118
threshold=9.7342745000000012e-06 248.47700000000003 0.64500000000000013 2.5568427000000001e-05 0.00015461392150000004 0.31500000000000006 1.2140600000000002e-07 77663.845000000016 0.49500000000000005 1.1250000000000002 13.617484500000002 0.29008484500000004 0.10500000000000002 -0.74593212383483609
decision_type=2 2 2 2 2 2 2 2 2 2 2 2 2 2
left_child=-1 2 4 5 6 -4 7 8 -2 10 11 -3 -12 -13
right_child=1 9 3 -5 -6 -7 -8 -9 -10 -11 12 13 -14 -15
leaf_value=0.013988071692683108 -0.023742199222345099 0.020398461234206456 -0.01590408473761596 -0.02308851671653676 0.012935953649515403 0.023014297965472229 -0.024907837987622212 -0.031068374583566635 0.01707414040024147 -0.024770844288925481 -0.020989484740542394 0.019556912699802486 0.0159766778008762 -0.024330241876536401
leaf_weight=59.462373748421669 7.1828184723854092 11.925702750682829 9.343902185559271 11.670213639736174 13.131690561771391 30.372123882174492 65.700297318398952 9.0098642110824567 17.409523740410805 8.9744153767824155 7.9173874855041495 6.0998647809028652 72.081411436200142 25.182490110397339
leaf_count=325 34 55 41 62 66 154 348 45 83 39 40 31 371 122
internal_value=1.66447e-05 -0.00279001 -0.00817265 0.0054672 -0.0144065 0.0138581 -0.0180223 -0.00455938 0.00515269 0.00388104 0.00596804 -0.0057891 0.0123182 -0.0157725
internal_weight=355.464 296.002 163.82 51.3862 112.434 39.716 99.3025 33.6022 24.5923 132.181 123.207 43.2081 79.9988 31.2824
internal_count=1816 1491 833 257 576 195 510 162 117 658 619 208 411 153
is_linear=0
shrinkage=0.04


Tree=49
num_leaves=15
num_cat=0
split_feature=24 31 17 30 15 19 15 10 2 41 6 2 6 3
split_gain=8.17256 4.24597 4.50057 4.5894 6.12548 6.89329 4.37036 4.41783 4.22831 4.50497 5.56815 4.80905 6.16957 4.92327
threshold=1.0000000180025095e-35 0.16236612982621776 -1.8040733299999998 -0.67543093099564755 2.3304314000000001e-05 0.30500000000000005 1.654721e-05 77745.760000000024 1.6484485000000002 0.029999999999999947 0.065000000000000016 25.033204000000001 0.32500000000000007 0.85230695000000012
decision_type=2 2 2 2 2 2 2 2 2 2 2 2 2 2
left_child=8 2 -2 -4 -5 -6 -3 -8 -1 -10 -11 12 -12 -13
right_child=1 6 3 4 5 -7 7 -9 9 10 11 13 -14 -15
leaf_value=0.030955672616271135 -0.021594413680214225 0.044175933512286041 0.021410062656349746 0.0097557791038099424 0.013169346836568792 -0.023066519380392135 0.022086618422115831 -0.015059641789216816 0.0008250730024314505 -0.036639882364600647 0.021663953226405061 -0.020879237439363832 -0.022494768210685294 0.0011765293371179524
leaf_weight=4.9306879192590705 10.627247631549833 8.4837439507246 23.51635354757309 58.951871439814568 12.647641122341154 25.0098847001791 16.887940183281902 7.3531589061021796 77.090733051300049 12.759257256984709 15.646865755319597 48.748359367251396 7.4833002239465705 24.247541129589081
leaf_count=21 51 58 140 330 64 117 106 40 359 61 68 258 32 111
internal_value=1.66647e-05 0.00658088 0.00335586 0.00556316 0.00170575 -0.0108964 0.0194665 0.0108189 -0.00560442 -0.00657372 -0.0118121 -0.00851655 0.00737729 -0.0135528
internal_weight=354.385 163.478 130.753 120.126 96.6094 37.6575 32.7248 24.2411 190.907 185.976 108.885 96.1261 23.1302 72.9959
internal_count=1816 906 702 651 511 181 204 146 910 889 530 469 100 369
is_linear=0
shrinkage=0.04


Tree=50
num_leaves=15
num_cat=0
split_feature=14 1 17 30 32 5 17 28 2 6 42 14 2 5
split_gain=7.78389 5.8528 14.7462 7.48024 9.86329 5.70868 4.88816 4.85366 5.1351 7.19019 6.95759 6.54666 4.5768 4.44165
threshold=6.6688445000000005e-06 248.47700000000003 1.2518551650000003 -1.0593749657507343 0.35000000000000003 0.24091445000000003 -0.81137384499999987 15.500000000000002 13.104581500000002 0.085000000000000006 1.2450000000000003 1.1701659500000001e-05 2.8754665000000004 0.24190669000000001
decision_type=2 2 2 2 2 2 2 2 2 2 2 2 2 2
left_child=6 2 3 -2 -5 -6 -1 8 12 -10 11 -11 -3 -7
right_child=1 7 -4 4 5 13 -8 -9 9 10 -12 -13 -14 -15
leaf_value=-0.0012732237136939392 -0.046507344506040361 0.010623451656858119 0.020797970916298862 0.0026848988845934729 0.011602078052895837 -0.052186408522612783 0.027518377409983908 0.016187338963577182 -0.02872804885181526 -0.01745620833725323 -0.030097939523501226 0.020034105823643719 -0.023562387775201584 -0.019360839147226468
leaf_weight=15.188848972320555 9.4106908142566663 8.6645773649215716 25.791490346193314 58.971682332456112 8.6405905410647375 7.3918104097247115 24.905011832714081 37.773770973086357 8.7455151826143247 8.7972729057073575 6.260944887995719 48.752879157662392 22.635075464844704 61.213242724537849
leaf_count=81 56 41 139 284 42 36 143 189 44 48 28 254 111 320
internal_value=1.72153e-05 -0.00210806 -0.00707951 -0.0120168 -0.00963394 -0.0190385 0.0166112 0.00390905 -0.000556717 0.00528512 0.00994673 0.0143032 -0.0140988 -0.0228976
internal_weight=353.143 313.05 171.42 145.628 136.217 77.2456 40.0939 141.63 103.856 72.5566 63.8111 57.5502 31.2997 68.6051
internal_count=1816 1592 877 738 682 398 224 715 526 374 330 302 152 356
is_linear=0
shrinkage=0.04


Tree=51
num_leaves=15
num_cat=0
split_feature=14 17 16 30 32 3 2 31 1 30 19 31 10 10
split_gain=7.40155 5.52382 10.8561 7.60701 11.4197 5.71854 4.89953 9.85942 5.72541 7.68079 5.11867 6.40007 5.88322 5.10706
threshold=9.7342745000000012e-06 1.2518551650000003 48.768287500000007 -1.0593749657507343 0.35000000000000003 0.99946771500000009 116.29220900000001 -0.31565286270952381 211.03150000000002 0.27807116944444454 0.46500000000000002 0.40235077943712988 77690.325000000012 77513.210000000006
decision_type=2 2 2 2 2 2 2 2 2 2 2 2 2 2
left_child=-1 2 -2 -4 -5 -3 7 -6 -9 -10 11 -8 13 -12
right_child=1 5 3 4 6 -7 10 8 9 -11 12 -13 -14 -15
leaf_value=0.013003894994654538 0.0047916487978502155 0.016011609857661285 -0.048182021982248954 0.0038388227359487958 0.012958520694479503 -0.026214770409440157 -0.010749004713421035 -0.068862465171321594 -0.049285811791405544 0.0061570702589255665 -0.038564848854348605 0.036842354621922244 -0.06022898326332482 0.0076026709139212145
leaf_weight=58.541467010974884 106.18770857155323 38.620545819401741 8.7728423625230771 56.994611129164696 6.3804501369595519 5.9176897704601279 17.202268011868004 8.7618719190359133 11.021085157990457 6.2737276405096045 6.8337444216012981 6.1330497264862052 5.6787230968475333 8.7327055484056455
leaf_count=325 532 205 54 275 35 28 80 45 57 31 43 31 31 44
internal_value=1.72212e-05 -0.002573 -0.00489391 -0.012097 -0.00973472 0.0104011 -0.0197794 -0.0316069 -0.0425196 -0.0291738 -0.0111736 0.00175908 -0.0253787 -0.0126651
internal_weight=352.052 293.511 248.973 142.785 134.012 44.5382 77.0176 32.4371 26.0567 17.2948 44.5805 23.3353 21.2452 15.5664
internal_count=1816 1491 1258 726 672 233 397 168 133 88 229 111 118 87
is_linear=0
shrinkage=0.04


Tree=52
num_leaves=15
num_cat=0
split_feature=24 4 10 28 22 28 3 36 5 31 15 3 28 21
split_gain=7.00617 3.96848 4.8427 6.1926 5.22551 4.7936 5.02551 4.63596 4.3523 3.93529 4.17715 4.12776 4.24552 6.11432
threshold=1.0000000180025095e-35 0.26556382000000006 77042.490000000005 10.500000000000002 0.5525000000000001 18.500000000000004 0.81695022000000017 1.0000000180025095e-35 0.24437543000000003 0.16236612982621776 1.654721e-05 0.99946771500000009 2.5000000000000004 0.57500000000000007
decision_type=2 2 2 2 2 2 2 2 2 2 2 2 2 2
left_child=1 7 3 -3 -4 6 -5 8 -1 11 -11 12 13 -2
right_child=9 2 4 5 -6 -7 -8 -9 -10 10 -12 -13 -14 -15
leaf_value=-0.011354568019040619 0.0093180542780821104 0.010652819579380366 -0.033203334051778659 -0.03751703804256578 -0.0049186513873435587 0.0050156540232353039 0.0019321240945299508 0.030421744535090629 0.0081476155560337212 0.043453471246723073 0.010262002882573191 -0.028793737614385324 0.0076135879577760111 -0.038406345287552428
leaf_weight=36.93173772841692 8.8632970899343508 28.368785366415977 23.767345905303955 16.19910824298859 18.652275577187538 13.349046558141707 7.5866493284702292 7.978907272219657 36.31078428030014 8.1284976303577405 23.916312158107758 6.2101131677627555 106.20385055243969 8.3339580148458463
leaf_count=176 46 123 127 91 94 56 36 35 172 58 146 31 589 36
internal_value=1.52381e-05 -0.00521076 -0.0102371 -0.00341848 -0.0207663 -0.0141681 -0.0249344 0.00146802 -0.00168615 0.00612988 0.0186814 0.00302668 0.00462803 -0.0138097
internal_weight=350.801 189.145 107.923 65.5036 42.4196 37.1348 23.7858 81.2214 73.2425 161.656 32.0448 129.611 123.401 17.1973
internal_count=1816 910 527 306 221 183 127 383 348 906 204 702 671 82
is_linear=0
shrinkage=0.04


Tree=53
num_leaves=15
num_cat=0
split_feature=14 17 16 30 32 3 22 4 5 29 4 16 14 3
split_gain=6.6066 5.04688 9.77669 7.18293 10.595 5.0615 4.72158 4.96174 4.67986 5.47967 4.1306 3.91276 5.97658 7.49762
threshold=9.7342745000000012e-06 1.2518551650000003 48.768287500000007 -1.0593749657507343 0.35000000000000003 0.99946771500000009 0.44250000000000006 0.68303675000000008 0.24091445000000003 2.5000000000000004 0.31319778000000004 14.055758500000001 2.3602115500000005e-05 0.61815057500000015
decision_type=2 2 2 2 2 2 2 2 2 2 2 2 2 2
left_child=6 2 11 -4 -5 -3 -1 -8 -6 -10 -11 12 -2 -14
right_child=1 5 3 4 8 -7 7 -9 9 10 -12 -13 13 -15
leaf_value=-0.00095285667409291709 -0.031822998809063134 0.015348597815090183 -0.047243904778679006 0.0038181653866129458 0.0086149175982029799 -0.024180019250955649 0.028865146469916038 -0.013347085994520055 0.015219392816366728 -0.022633231896286063 -0.0577501897536499 0.010659539447717139 0.019107090397940309 -0.021501086772797062
leaf_weight=24.560205690562725 10.112569138407705 38.292764328420162 8.4750632345676404 56.777294680476189 8.6969313845038396 5.9942576587200156 28.045252278447151 5.2967585101723662 5.6312873512506476 56.013213627040386 5.9261897206306449 64.754725821316242 19.067421615123752 11.762387797236441
leaf_count=132 51 205 54 275 42 28 161 32 26 289 40 335 90 56
internal_value=1.46313e-05 -0.00243674 -0.0046644 -0.0115389 -0.00926443 0.00999839 0.0123559 0.0221593 -0.0190037 -0.0225585 -0.0259931 0.00453997 -0.00513877 0.003614
internal_weight=349.406 291.504 247.217 141.52 133.045 44.287 57.9022 33.342 76.2676 67.5707 61.9394 105.697 40.9424 30.8298
internal_count=1816 1491 1258 726 672 233 325 193 397 355 329 532 197 146
is_linear=0
shrinkage=0.04


Tree=54
num_leaves=15
num_cat=0
split_feature=15 2 17 30 11 18 11 2 30 13 14 2 1 18
split_gain=6.28463 6.29612 8.92233 6.32518 9.04253 5.77195 8.81247 4.69774 5.43138 4.30271 4.23346 4.1364 5.82833 5.48387
threshold=1.654721e-05 49.492868500000007 1.2518551650000003 -1.0593749657507343 76875.215000000011 0.79500000000000015 73489.065000000017 70.562677500000021 -0.52544617145833328 5.1969200000000018e-07 5.8840040000000009e-05 13.617484500000002 296.65500000000003 0.36500000000000005
decision_type=2 2 2 2 2 2 2 2 2 2 2 2 2 2
left_child=9 11 3 -3 5 6 -5 -6 -9 -1 -8 12 -2 -13
right_child=1 2 -4 4 7 -7 10 8 -10 -11 -12 13 -14 -15
leaf_value=0.0065859248936663119 -0.015047805276981296 -0.045936815679894924 0.016976739381577795 -0.021392184509620306 -0.041317168324147079 -0.01829459065281339 0.04634850775393895 0.016917245774305707 -0.017170791929837517 0.034638940714983781 0.0086094848308494124 0.023088180292289252 0.017502982316691541 0.001518461504462539
leaf_weight=61.131667993962765 31.822508543729782 8.2397442907094938 19.522632874548435 7.143769800662997 10.992924049496649 10.577439554035662 11.344146907329561 8.4362956732511503 65.885913670063019 10.208741016685961 8.1891053318977338 29.167894020676613 12.165940821170805 53.359189704060555
leaf_count=337 154 54 105 34 60 48 54 40 347 58 39 154 57 275
internal_value=1.39493e-05 -0.00271403 -0.00824782 -0.0120125 -0.00973189 0.00670946 0.0166236 -0.0169113 -0.0133015 0.0106003 0.0305268 0.00386149 -0.00604519 0.00914194
internal_weight=348.188 276.848 150.332 130.809 122.57 37.2545 26.677 85.3151 74.3222 71.3404 19.5333 126.516 43.9884 82.5271
internal_count=1816 1421 781 676 622 175 127 447 387 395 93 640 211 429
is_linear=0
shrinkage=0.04


Tree=55
num_leaves=15
num_cat=0
split_feature=24 10 13 15 42 10 4 19 3 13 28 16 2 23
split_gain=6.03341 3.83255 4.74425 5.76585 4.73705 4.38386 6.5272 7.11326 6.10099 7.70274 4.79774 4.08495 4.03091 5.35483
threshold=1.0000000180025095e-35 73026.200000000026 0.00016912481900000005 9.8265753500000007e-05 0.085000000000000006 77056.860000000001 0.26200570500000003 0.42500000000000004 0.5370167950000001 2.2422630000000003e-05 10.500000000000002 48.768287500000007 8.5147150000000007 0.20750000000000005
decision_type=2 2 2 2 2 2 2 2 2 2 2 2 2 2
left_child=1 -1 3 4 -3 10 8 -8 -7 -10 -6 -9 -12 -14
right_child=-2 2 -4 -5 5 6 7 11 9 -11 12 -13 13 -15
leaf_value=-0.037035837261907033 0.005714499905564106 -0.034729636003676317 0.023255085158345765 -0.028925289192782894 0.020042212103275104 0.041851281550994955 -0.042948267121500246 0.017234018471534166 0.0048535116035391904 -0.040630969958762995 0.024056490781831388 -0.017702544467702429 -0.043376738986907706 -0.00067583943256687676
leaf_weight=5.7435515001416197 160.03369767218828 7.2280986160039893 9.7765913754701597 15.183464199304579 25.156693577766418 5.5615879744291297 13.548528030514715 7.7157467305660274 36.070610597729683 7.1356197744607917 7.2232486009597769 17.500295758247375 5.8932790309190777 23.183958388864994
leaf_count=31 906 34 52 85 111 26 72 34 156 44 31 96 27 111
internal_value=1.37963e-05 -0.00486689 -0.0038471 -0.00539299 -0.00310578 -0.00157158 -0.00732084 -0.0195723 0.00241761 -0.00265837 0.006617 -0.00701246 -0.00268685 -0.00933032
internal_weight=346.955 186.921 181.178 171.401 156.218 148.99 87.5324 38.7646 48.7678 43.2062 61.4572 25.216 36.3005 29.0772
internal_count=1816 910 879 827 742 708 428 202 226 200 280 130 169 138
is_linear=0
shrinkage=0.04


Tree=56
num_leaves=15
num_cat=0
split_feature=14 31 17 30 9 32 3 10 12 10 14 6 16 14
split_gain=5.8334 4.68653 5.45432 4.67147 4.32822 7.39064 6.08884 5.24345 5.53454 4.18714 4.44825 9.20684 9.21108 7.23838
